<?xml version="1.0"?>
<opencv_storage>
<cascade>
  <stageType>BOOST</stageType>
  <featureType>LBP</featureType>
  <height>40</height>
  <width>20</width>
  <stageParams>
    <boostType>GAB</boostType>
    <minHitRate>9.9500000476837158e-01</minHitRate>
    <maxFalseAlarm>5.0000000000000000e-01</maxFalseAlarm>
    <weightTrimRate>9.4999999999999996e-01</weightTrimRate>
    <maxDepth>1</maxDepth>
    <maxWeakCount>50</maxWeakCount></stageParams>
  <featureParams>
    <maxCatCount>256</maxCatCount>
    <featSize>1</featSize></featureParams>
  <stageNum>23</stageNum>
  <stages>
    <!-- stage 0 -->
    <_>
      <maxWeakCount>3</maxWeakCount>
      <stageThreshold>-8.0046761035919189e-01</stageThreshold>
      <weakClassifiers>
        <_>
          <internalNodes>
            0 -1 144 -2097169 -287377201 -768352222 -487393042 -67109049
            -823680510 -135268492 -185270284</internalNodes>
          <leafValues>
            -7.8255575895309448e-01 7.3388564586639404e-01</leafValues></_>
        <_>
          <internalNodes>
            0 -1 199 -150994961 -1024463953 -769197376 -252259614
            1995915520 -972345233 -406329484 -185073833</internalNodes>
          <leafValues>
            -7.0024508237838745e-01 6.2588965892791748e-01</leafValues></_>
        <_>
          <internalNodes>
            0 -1 139 -16777233 -993526033 -462953792 -1060177965 -4325
            -825754877 -9966748 -757596161</internalNodes>
          <leafValues>
            -5.8771300315856934e-01 6.8233323097229004e-01</leafValues></_></weakClassifiers></_>
    <!-- stage 1 -->
    <_>
      <maxWeakCount>5</maxWeakCount>
      <stageThreshold>-1.4790325164794922e+00</stageThreshold>
      <weakClassifiers>
        <_>
          <internalNodes>
            0 -1 162 -1048854 -856752182 -486740320 -523965724
            -134219968 -858980754 -193468848 -792200236</internalNodes>
          <leafValues>
            -6.5488088130950928e-01 7.1278399229049683e-01</leafValues></_>
        <_>
          <internalNodes>
            0 -1 128 -1728047888 -494088 -1073750531 -1644425731
            -13066244 -197124 -1074216966 -1146483560</internalNodes>
          <leafValues>
            -5.5429428815841675e-01 7.0228242874145508e-01</leafValues></_>
        <_>
          <internalNodes>
            0 -1 138 -1048593 -286327890 -421070304 -1057030220 -4346
            -1000997022 -160105756 -170393601</internalNodes>
          <leafValues>
            -5.6665849685668945e-01 6.6956502199172974e-01</leafValues></_>
        <_>
          <internalNodes>
            0 -1 229 -18879489 -472918881 -805126114 -263288242
            -78690742 1258948648 -257895344 -262996138</internalNodes>
          <leafValues>
            -5.6826913356781006e-01 5.7324671745300293e-01</leafValues></_>
        <_>
          <internalNodes>
            0 -1 129 445126108 -678407591 -754757219 -2275623
            -2113359108 -1147567989 -1282364481 -1146484592</internalNodes>
          <leafValues>
            -5.0259464979171753e-01 6.2582892179489136e-01</leafValues></_></weakClassifiers></_>
    <!-- stage 2 -->
    <_>
      <maxWeakCount>6</maxWeakCount>
      <stageThreshold>-5.3217178583145142e-01</stageThreshold>
      <weakClassifiers>
        <_>
          <internalNodes>
            0 -1 130 134222064 -617344784 -116205057 991428668
            -2104977172 -1095073655 59277496 134742016</internalNodes>
          <leafValues>
            -7.0700001716613770e-01 6.0215383768081665e-01</leafValues></_>
        <_>
          <internalNodes>
            0 -1 39 -714087953 -3214457 -1878978448 -253495152
            -125056545 -866457333 -792358670 -252185865</internalNodes>
          <leafValues>
            -5.9435188770294189e-01 5.3411966562271118e-01</leafValues></_>
        <_>
          <internalNodes>
            0 -1 57 -150997197 3143014 -704905423 -641728553 -723518052
            -1917845521 -973802000 -1996488709</internalNodes>
          <leafValues>
            -5.0305831432342529e-01 5.6218802928924561e-01</leafValues></_>
        <_>
          <internalNodes>
            0 -1 219 -1049617 -1014541785 -1065629454 -489427242
            -640984250 1780901124 1631285328 -196608153</internalNodes>
          <leafValues>
            -6.0203504562377930e-01 4.9447628855705261e-01</leafValues></_>
        <_>
          <internalNodes>
            0 -1 209 10485808 -611034888 1435687413 999692468
            -1195704648 -24192860 177768703 446301352</internalNodes>
          <leafValues>
            -7.2201532125473022e-01 3.7263810634613037e-01</leafValues></_>
        <_>
          <internalNodes>
            0 -1 161 -3145746 -552906877 809226832 -218992206 -473480630
            -935952374 -947396134 -251660673</internalNodes>
          <leafValues>
            -5.9373688697814941e-01 4.3638902902603149e-01</leafValues></_></weakClassifiers></_>
    <!-- stage 3 -->
    <_>
      <maxWeakCount>7</maxWeakCount>
      <stageThreshold>-1.0263206958770752e+00</stageThreshold>
      <weakClassifiers>
        <_>
          <internalNodes>
            0 -1 142 -16465 -1368412177 -1343279582 -1493192722 -49337
            1166016359 -55513 -134217729</internalNodes>
          <leafValues>
            -5.0512331724166870e-01 6.5319693088531494e-01</leafValues></_>
        <_>
          <internalNodes>
            0 -1 185 -1743233540 -1107506183 -107020291 -65539
            -1077346561 -4197921 -70485255 -1079501572</internalNodes>
          <leafValues>
            -5.6825411319732666e-01 5.2334111928939819e-01</leafValues></_>
        <_>
          <internalNodes>
            0 -1 31 -780959062 -213136766 -802860984 -246303013
            1089192426 -360665950 -524181270 -783163213</internalNodes>
          <leafValues>
            -5.8983814716339111e-01 4.9693217873573303e-01</leafValues></_>
        <_>
          <internalNodes>
            0 -1 113 -67110917 -827357206 -252194048 -1034420496
            -136316033 -928599902 -169871881 -956301853</internalNodes>
          <leafValues>
            -5.3169697523117065e-01 4.9586853384971619e-01</leafValues></_>
        <_>
          <internalNodes>
            0 -1 105 405804080 -42315307 -1587916289 1069226237
            183547320 -108135971 -1949947143 974651544</internalNodes>
          <leafValues>
            -7.3510670661926270e-01 3.5254305601119995e-01</leafValues></_>
        <_>
          <internalNodes>
            0 -1 122 -134219777 -354501125 -49300184 -527512882
            -10568201 -33965342 -35194348 -521669917</internalNodes>
          <leafValues>
            -6.5534889698028564e-01 3.9180415868759155e-01</leafValues></_>
        <_>
          <internalNodes>
            0 -1 231 -352331057 -555232881 -411647406 -501029012
            1163083846 -15249317 -169379241 -260577417</internalNodes>
          <leafValues>
            -6.3265031576156616e-01 3.8462737202644348e-01</leafValues></_></weakClassifiers></_>
    <!-- stage 4 -->
    <_>
      <maxWeakCount>6</maxWeakCount>
      <stageThreshold>-6.6209715604782104e-01</stageThreshold>
      <weakClassifiers>
        <_>
          <internalNodes>
            0 -1 103 335566300 1066947024 -539099139 -1086581316
            1063262716 -6507844 -1076299012 705169560</internalNodes>
          <leafValues>
            -6.2511712312698364e-01 6.0226202011108398e-01</leafValues></_>
        <_>
          <internalNodes>
            0 -1 145 -8209 -424742514 -804813600 -521863186 -76551611
            -436172663 -529388 -456851472</internalNodes>
          <leafValues>
            -7.3371839523315430e-01 3.7672299146652222e-01</leafValues></_>
        <_>
          <internalNodes>
            0 -1 10 -136326398 19506210 387928602 369091539 -610295065
            40072154 -241862912 100134839</internalNodes>
          <leafValues>
            -6.4294493198394775e-01 3.7572297453880310e-01</leafValues></_>
        <_>
          <internalNodes>
            0 -1 168 322492893 -12788363 -1077975041 -4302596 -4538946
            -196609 -1078015233 -1146486584</internalNodes>
          <leafValues>
            -4.7670927643775940e-01 5.2585965394973755e-01</leafValues></_>
        <_>
          <internalNodes>
            0 -1 179 -4194325 -288362258 -805252062 -422675550 -35655866
            -1010125745 -421531070 -687867070</internalNodes>
          <leafValues>
            -5.7584041357040405e-01 3.8662147521972656e-01</leafValues></_>
        <_>
          <internalNodes>
            0 -1 35 1427620330 -708095522 -263134510 -204147005
            -759454790 -2147442944 -193679109 -235539529</internalNodes>
          <leafValues>
            -5.5921900272369385e-01 4.1110315918922424e-01</leafValues></_></weakClassifiers></_>
    <!-- stage 5 -->
    <_>
      <maxWeakCount>8</maxWeakCount>
      <stageThreshold>-1.3113505840301514e+00</stageThreshold>
      <weakClassifiers>
        <_>
          <internalNodes>
            0 -1 204 -1 -286793889 -792001904 -325004566 -1085296380
            -888057085 1963970592 -188416012</internalNodes>
          <leafValues>
            -5.6307029724121094e-01 5.3472954034805298e-01</leafValues></_>
        <_>
          <internalNodes>
            0 -1 85 -650109452 -107016 -1 -12886544 -579019332 -33751044
            -475157 -1700134728</internalNodes>
          <leafValues>
            -4.7512474656105042e-01 5.1523572206497192e-01</leafValues></_>
        <_>
          <internalNodes>
            0 -1 174 -536874294 -827405906 -791350544 -264048210
            -47189180 -872343552 1422766832 -781713665</internalNodes>
          <leafValues>
            -5.5393397808074951e-01 3.9493328332901001e-01</leafValues></_>
        <_>
          <internalNodes>
            0 -1 241 1223584399 2097301582 -846556385 -49397568
            1216576206 1521631366 1955230190 1751269502</internalNodes>
          <leafValues>
            -5.5750596523284912e-01 3.6219686269760132e-01</leafValues></_>
        <_>
          <internalNodes>
            0 -1 64 -677381291 224381135 -780014095 -1417957041
            -1142691111 762544527 -779882015 -944767809</internalNodes>
          <leafValues>
            -4.5477983355522156e-01 4.2277613282203674e-01</leafValues></_>
        <_>
          <internalNodes>
            0 -1 48 440669276 -74038768 1159417983 320995394 873083092
            -1937767872 2041231806 454688995</internalNodes>
          <leafValues>
            -6.0387361049652100e-01 2.9542723298072815e-01</leafValues></_>
        <_>
          <internalNodes>
            0 -1 121 -681584781 -825503369 -732707912 -1292985698
            -278686793 -661935417 -7602444 -252183566</internalNodes>
          <leafValues>
            -5.2183145284652710e-01 3.6886572837829590e-01</leafValues></_>
        <_>
          <internalNodes>
            0 -1 208 -1954488580 -149622476 512679423 -6893315
            -1708468744 -20130824 -1685472258 -1717043024</internalNodes>
          <leafValues>
            -5.0545376539230347e-01 3.7812674045562744e-01</leafValues></_></weakClassifiers></_>
    <!-- stage 6 -->
    <_>
      <maxWeakCount>8</maxWeakCount>
      <stageThreshold>-1.1926903724670410e+00</stageThreshold>
      <weakClassifiers>
        <_>
          <internalNodes>
            0 -1 150 1048628 -2354796 471060953 1058806096 682150332
            -1080163944 -1356297512 167772176</internalNodes>
          <leafValues>
            -7.8621226549148560e-01 4.8758494853973389e-01</leafValues></_>
        <_>
          <internalNodes>
            0 -1 29 -238554129 -773200501 -1025443855 -772582033
            -171061813 -889182453 -169479987 -437784633</internalNodes>
          <leafValues>
            -3.7948080897331238e-01 5.6491822004318237e-01</leafValues></_>
        <_>
          <internalNodes>
            0 -1 163 -539757585 -951848249 403951730 -363923756
            -208672146 -837891571 -83107262 -1001914686</internalNodes>
          <leafValues>
            -5.2552163600921631e-01 4.0952497720718384e-01</leafValues></_>
        <_>
          <internalNodes>
            0 -1 81 -657433412 1071441017 -1055222819 466841995
            -930608932 -123156327 -119011076 -1147530598</internalNodes>
          <leafValues>
            -5.2360868453979492e-01 3.9025530219078064e-01</leafValues></_>
        <_>
          <internalNodes>
            0 -1 80 -791095048 -1870659432 1493340255 461964505
            -1960701559 -1728052864 199435003 187367627</internalNodes>
          <leafValues>
            -4.8640748858451843e-01 3.7295094132423401e-01</leafValues></_>
        <_>
          <internalNodes>
            0 -1 114 -136323093 -1370490102 -2147302958 -1060916351
            -896535489 -1995783794 -209193755 -959973609</internalNodes>
          <leafValues>
            -5.2858370542526245e-01 3.4836891293525696e-01</leafValues></_>
        <_>
          <internalNodes>
            0 -1 244 -297881857 -3162017 -1936924651 -192631776
            1342918735 -318019581 -131374849 -42506157</internalNodes>
          <leafValues>
            -4.1946971416473389e-01 4.5237547159194946e-01</leafValues></_>
        <_>
          <internalNodes>
            0 -1 175 -369100101 1317236944 372421362 -790855012
            -350487996 -1467350780 -989531164 -866323460</internalNodes>
          <leafValues>
            -6.0801994800567627e-01 2.7343496680259705e-01</leafValues></_></weakClassifiers></_>
    <!-- stage 7 -->
    <_>
      <maxWeakCount>8</maxWeakCount>
      <stageThreshold>-7.4102622270584106e-01</stageThreshold>
      <weakClassifiers>
        <_>
          <internalNodes>
            0 -1 167 -33554433 -285216769 -16781570 -1393623298 -137
            -597753859 -34100108 -185073932</internalNodes>
          <leafValues>
            -3.8532882928848267e-01 5.5711489915847778e-01</leafValues></_>
        <_>
          <internalNodes>
            0 -1 82 1543527676 528105471 -368679 1069250551 -269984580
            -229387 -541450497 -1145436934</internalNodes>
          <leafValues>
            -3.9365434646606445e-01 4.5223337411880493e-01</leafValues></_>
        <_>
          <internalNodes>
            0 -1 33 121369905 50588211 -507293293 325049299 562817491
            193167457 -1539068543 -1980237583</internalNodes>
          <leafValues>
            -4.9885508418083191e-01 3.8094350695610046e-01</leafValues></_>
        <_>
          <internalNodes>
            0 -1 217 -993073409 -11890353 1418772602 -534593470
            1512265539 2114671715 -759597185 -93883533</internalNodes>
          <leafValues>
            -5.4774641990661621e-01 3.1699237227439880e-01</leafValues></_>
        <_>
          <internalNodes>
            0 -1 186 402707796 477156852 -1826120355 -1080100452
            -1142287624 -69695356 732590319 733612164</internalNodes>
          <leafValues>
            -6.0924172401428223e-01 2.7474415302276611e-01</leafValues></_>
        <_>
          <internalNodes>
            0 -1 112 -2100493 231199018 -791031648 1760224194 -203424769
            179036305 -709889838 -1063259705</internalNodes>
          <leafValues>
            -5.4155933856964111e-01 3.2116156816482544e-01</leafValues></_>
        <_>
          <internalNodes>
            0 -1 118 -603982865 -334575730 -516222928 -932784054
            -628110845 -837910397 -2019851963 -1059782928</internalNodes>
          <leafValues>
            -7.2414112091064453e-01 1.9981573522090912e-01</leafValues></_>
        <_>
          <internalNodes>
            0 -1 169 538106074 406112412 -1795075649 420344921 151690232
            -1903647584 19161514 182174745</internalNodes>
          <leafValues>
            -4.8720166087150574e-01 3.3097741007804871e-01</leafValues></_></weakClassifiers></_>
    <!-- stage 8 -->
    <_>
      <maxWeakCount>10</maxWeakCount>
      <stageThreshold>-1.2886340618133545e+00</stageThreshold>
      <weakClassifiers>
        <_>
          <internalNodes>
            0 -1 116 -924911776 -825982326 1616429136 -790720042
            -89137836 -872120192 -243024524 -722076681</internalNodes>
          <leafValues>
            -6.2772583961486816e-01 4.5814856886863708e-01</leafValues></_>
        <_>
          <internalNodes>
            0 -1 149 -709829156 -541162356 -1290019425 -10626595
            -1685143572 -1146463 -1416953861 -1145435136</internalNodes>
          <leafValues>
            -4.3394786119461060e-01 4.2579826712608337e-01</leafValues></_>
        <_>
          <internalNodes>
            0 -1 2 51325483 -204215641 809464377 1496556267 1206692523
            -1595250560 -1057034005 -782110517</internalNodes>
          <leafValues>
            -3.4500244259834290e-01 4.9803534150123596e-01</leafValues></_>
        <_>
          <internalNodes>
            0 -1 246 -422647125 -11291554 1308672031 -429785046
            1510146124 1748173074 1955794975 1617381203</internalNodes>
          <leafValues>
            -5.3018534183502197e-01 3.1529423594474792e-01</leafValues></_>
        <_>
          <internalNodes>
            0 -1 214 -16779538 -492320662 -258739982 -791356800
            -201195516 -955858637 -494542624 -262669514</internalNodes>
          <leafValues>
            -6.1292403936386108e-01 2.6406118273735046e-01</leafValues></_>
        <_>
          <internalNodes>
            0 -1 25 1357267028 -745316553 1627738623 1392716498
            1225916804 -623752698 1323459563 453644979</internalNodes>
          <leafValues>
            -5.3576880693435669e-01 2.7818515896797180e-01</leafValues></_>
        <_>
          <internalNodes>
            0 -1 146 -805249580 -1835892397 -1006468865 -1081212066
            -674639515 -622116677 -343073955 -1153754377</internalNodes>
          <leafValues>
            -4.0535283088684082e-01 3.8015332818031311e-01</leafValues></_>
        <_>
          <internalNodes>
            0 -1 58 -70270157 -2146805486 -985180015 -643102372
            -938761765 178800771 -108818048 -1999901985</internalNodes>
          <leafValues>
            -4.0639087557792664e-01 3.7903341650962830e-01</leafValues></_>
        <_>
          <internalNodes>
            0 -1 107 538068049 -105905888 1401093073 1397269504
            -1736179576 -1365637070 -1534852216 2114560</internalNodes>
          <leafValues>
            -3.9854067564010620e-01 4.0526434779167175e-01</leafValues></_>
        <_>
          <internalNodes>
            0 -1 201 -201329202 -345520690 1825479920 -523832118
            -112332540 -821322752 -959649212 -1002176940</internalNodes>
          <leafValues>
            -6.6903817653656006e-01 2.4054004251956940e-01</leafValues></_></weakClassifiers></_>
    <!-- stage 9 -->
    <_>
      <maxWeakCount>11</maxWeakCount>
      <stageThreshold>-8.8941532373428345e-01</stageThreshold>
      <weakClassifiers>
        <_>
          <internalNodes>
            0 -1 86 134222096 -644607912 -2013032035 522719856 947920828
            -7805271 -1630916612 134742072</internalNodes>
          <leafValues>
            -6.2460565567016602e-01 4.5519912242889404e-01</leafValues></_>
        <_>
          <internalNodes>
            0 -1 71 -241175569 -2096119741 411624112 -573053574
            -636761649 -1960787958 -796696336 -454558745</internalNodes>
          <leafValues>
            -4.3878504633903503e-01 3.7066787481307983e-01</leafValues></_>
        <_>
          <internalNodes>
            0 -1 95 -740295745 -490014629 -1761383424 -454896370
            -655708297 -928332835 -87312301 -1060897066</internalNodes>
          <leafValues>
            -4.2310121655464172e-01 3.7083184719085693e-01</leafValues></_>
        <_>
          <internalNodes>
            0 -1 41 -681709097 -581840367 196611 51201163 -523720546
            -619847540 1074200587 87553919</internalNodes>
          <leafValues>
            -4.6525910496711731e-01 3.3063316345214844e-01</leafValues></_>
        <_>
          <internalNodes>
            0 -1 18 -50410242 -256614211 190333343 2099249443 1116750868
            -625852140 -133123397 976376291</internalNodes>
          <leafValues>
            -4.2324057221412659e-01 3.2844871282577515e-01</leafValues></_>
        <_>
          <internalNodes>
            0 -1 141 -134217745 -1477461621 -1038910286 -1600931049
            -35677617 -1460977653 729494275 -1210078409</internalNodes>
          <leafValues>
            -4.7490301728248596e-01 2.9075568914413452e-01</leafValues></_>
        <_>
          <internalNodes>
            0 -1 132 1221607440 1896358146 1435620725 1973453888
            1369089199 -392033916 739501228 -2139093504</internalNodes>
          <leafValues>
            -4.1159370541572571e-01 3.5404431819915771e-01</leafValues></_>
        <_>
          <internalNodes>
            0 -1 14 -498939696 144200912 -889037452 1622676 16777248
            680028553 335679928 1287637691</internalNodes>
          <leafValues>
            -5.4810607433319092e-01 2.6807489991188049e-01</leafValues></_>
        <_>
          <internalNodes>
            0 -1 243 -287381266 -138100177 1073742066 -258555810
            -208983738 1593837616 -1151096845 -143659009</internalNodes>
          <leafValues>
            -4.3053165078163147e-01 3.4699112176895142e-01</leafValues></_>
        <_>
          <internalNodes>
            0 -1 72 1093910547 -274469317 14680697 -780665098 1853356986
            -868815759 -260593410 -330055749</internalNodes>
          <leafValues>
            -2.8919056057929993e-01 5.2393639087677002e-01</leafValues></_>
        <_>
          <internalNodes>
            0 -1 234 -341056641 -448540305 1345511562 -768531645
            -213429740 -22605303 1892040704 -722143376</internalNodes>
          <leafValues>
            -5.7250154018402100e-01 2.7221885323524475e-01</leafValues></_></weakClassifiers></_>
    <!-- stage 10 -->
    <_>
      <maxWeakCount>11</maxWeakCount>
      <stageThreshold>-1.2236946821212769e+00</stageThreshold>
      <weakClassifiers>
        <_>
          <internalNodes>
            0 -1 238 2224 514873360 1359074749 -1088625080 -1549252196
            -4659011 -1145168961 1067976840</internalNodes>
          <leafValues>
            -5.2135491371154785e-01 4.4917389750480652e-01</leafValues></_>
        <_>
          <internalNodes>
            0 -1 195 -603982102 -397499410 1914818640 1343550446
            -704096192 -1035885312 -239738652 -713034753</internalNodes>
          <leafValues>
            -4.6431562304496765e-01 3.2368040084838867e-01</leafValues></_>
        <_>
          <internalNodes>
            0 -1 40 -27822560 68485138 152228112 521863427 1401675435
            177963178 1996686080 93799687</internalNodes>
          <leafValues>
            -5.7836645841598511e-01 2.4804477393627167e-01</leafValues></_>
        <_>
          <internalNodes>
            0 -1 184 -539500577 -461405933 1510575212 -464074550
            -217366698 -1627735895 -830013184 -1006111065</internalNodes>
          <leafValues>
            -5.6624209880828857e-01 2.2776502370834351e-01</leafValues></_>
        <_>
          <internalNodes>
            0 -1 17 -801058566 -1719664446 138498427 419513923
            -805261152 -2013265760 1527346378 185533099</internalNodes>
          <leafValues>
            -4.3893295526504517e-01 3.1803789734840393e-01</leafValues></_>
        <_>
          <internalNodes>
            0 -1 207 -1727463972 -1625779008 877103607 -1081753283
            2061199869 -1080354654 430639336 -1447098156</internalNodes>
          <leafValues>
            -3.7452611327171326e-01 3.5919776558876038e-01</leafValues></_>
        <_>
          <internalNodes>
            0 -1 93 -110627021 199987974 -1874079439 -757599013
            -354682181 -1906652463 -741607440 -940051461</internalNodes>
          <leafValues>
            -3.7570974230766296e-01 3.7441006302833557e-01</leafValues></_>
        <_>
          <internalNodes>
            0 -1 155 1621579076 1431314441 1494291476 1432568834
            -1800894258 674238849 1200301242 1073766914</internalNodes>
          <leafValues>
            -4.8361757397651672e-01 2.8076329827308655e-01</leafValues></_>
        <_>
          <internalNodes>
            0 -1 190 1648510155 -897429428 -1056943849 -293322217
            268583258 -360024047 1554412410 -361611249</internalNodes>
          <leafValues>
            -5.1195991039276123e-01 2.5847706198692322e-01</leafValues></_>
        <_>
          <internalNodes>
            0 -1 26 302960854 1495161286 419434749 285250650 1275072760
            2053316772 1361580714 721945154</internalNodes>
          <leafValues>
            -5.0572925806045532e-01 2.3464126884937286e-01</leafValues></_>
        <_>
          <internalNodes>
            0 -1 178 -10496513 -389852964 -2012823344 -196433824
            -746284764 -99707904 -801050384 -176820132</internalNodes>
          <leafValues>
            -5.0458168983459473e-01 2.6574221253395081e-01</leafValues></_></weakClassifiers></_>
    <!-- stage 11 -->
    <_>
      <maxWeakCount>13</maxWeakCount>
      <stageThreshold>-8.7279403209686279e-01</stageThreshold>
      <weakClassifiers>
        <_>
          <internalNodes>
            0 -1 177 -1049878 -286337812 806795488 -1059267452
            -888933632 -1970616320 -1836531388 -998965420</internalNodes>
          <leafValues>
            -6.1656165122985840e-01 4.3104615807533264e-01</leafValues></_>
        <_>
          <internalNodes>
            0 -1 148 -295120428 -1208036899 -1189898273 -1074277951
            -595012356 -22378453 -1144468065 -1112931080</internalNodes>
          <leafValues>
            -4.0497100353240967e-01 3.4079113602638245e-01</leafValues></_>
        <_>
          <internalNodes>
            0 -1 32 -235953745 -748294577 -252494377 -207225405
            1635093965 -817529276 -251798067 -235407377</internalNodes>
          <leafValues>
            -3.2074251770973206e-01 4.3789261579513550e-01</leafValues></_>
        <_>
          <internalNodes>
            0 -1 166 -606604289 -926027066 973500624 -288181858
            -1196164505 -1987329901 -309857467 -657130284</internalNodes>
          <leafValues>
            -6.5862071514129639e-01 1.9422726333141327e-01</leafValues></_>
        <_>
          <internalNodes>
            0 -1 125 -736560903 -553628593 -1374712369 -1490833601
            -15213345 -90972171 1413290287 -11143425</internalNodes>
          <leafValues>
            -2.8404983878135681e-01 4.7008448839187622e-01</leafValues></_>
        <_>
          <internalNodes>
            0 -1 245 -488189954 -15757302 -2107979406 -528293822
            1394828870 1930655788 -1025358785 -77126813</internalNodes>
          <leafValues>
            -4.8989361524581909e-01 2.4928972125053406e-01</leafValues></_>
        <_>
          <internalNodes>
            0 -1 68 -923904516 431488471 2113421117 490331768 -825487683
            -536903747 -285470726 -4530273</internalNodes>
          <leafValues>
            -3.1761521100997925e-01 4.0821018815040588e-01</leafValues></_>
        <_>
          <internalNodes>
            0 -1 108 -256887791 1929511968 -1191824779 1394359296
            -1203448692 -1468246444 -1810825302 -1476391788</internalNodes>
          <leafValues>
            -2.6349875330924988e-01 4.8861396312713623e-01</leafValues></_>
        <_>
          <internalNodes>
            0 -1 9 -740306176 62115981 1343408528 60757902 -2146460768
            10518684 -240805760 32493499</internalNodes>
          <leafValues>
            -5.9017062187194824e-01 2.5122711062431335e-01</leafValues></_>
        <_>
          <internalNodes>
            0 -1 151 524416 471126776 360928281 454842449 -1424762375
            -1440708598 4426906 437207192</internalNodes>
          <leafValues>
            -5.6329256296157837e-01 2.1284393966197968e-01</leafValues></_>
        <_>
          <internalNodes>
            0 -1 205 -764949521 -515292922 -804945700 -1159798190
            -224451001 -299412921 -779009936 -185077326</internalNodes>
          <leafValues>
            -4.9621748924255371e-01 2.4558314681053162e-01</leafValues></_>
        <_>
          <internalNodes>
            0 -1 89 397661147 -1687552846 -1598883535 -1859941264
            523277962 -50545039 1303477419 -988547619</internalNodes>
          <leafValues>
            -3.0477282404899597e-01 4.2761197686195374e-01</leafValues></_>
        <_>
          <internalNodes>
            0 -1 202 -89684786 -2109053 1097962 -337919777 34556943
            1010961158 1464013119 1987557803</internalNodes>
          <leafValues>
            -3.9555826783180237e-01 3.3034762740135193e-01</leafValues></_></weakClassifiers></_>
    <!-- stage 12 -->
    <_>
      <maxWeakCount>12</maxWeakCount>
      <stageThreshold>-7.7276098728179932e-01</stageThreshold>
      <weakClassifiers>
        <_>
          <internalNodes>
            0 -1 98 -67118081 -889260114 -1638624 -2138927450 -9
            -17043717 -176 -1066936494</internalNodes>
          <leafValues>
            -2.7385708689689636e-01 4.9895951151847839e-01</leafValues></_>
        <_>
          <internalNodes>
            0 -1 46 -599467810 -572698316 -787415049 318984274
            1409322132 -41287488 -355804166 990523442</internalNodes>
          <leafValues>
            -3.8900688290596008e-01 3.4298145771026611e-01</leafValues></_>
        <_>
          <internalNodes>
            0 -1 75 -671111373 93286314 -336071823 -1107820617
            -2049058853 -1912668163 300414128 -805306433</internalNodes>
          <leafValues>
            -3.0071634054183960e-01 3.8415032625198364e-01</leafValues></_>
        <_>
          <internalNodes>
            0 -1 237 -1189022280 368882904 -2122202827 -1076972167
            411777279 -1449475608 981674139 -1161886548</internalNodes>
          <leafValues>
            -3.8503858447074890e-01 3.0578041076660156e-01</leafValues></_>
        <_>
          <internalNodes>
            0 -1 28 38994075 -1619579205 28404283 -639147277 905831562
            -1456756224 -1603147590 -934022463</internalNodes>
          <leafValues>
            -3.0540928244590759e-01 3.9481675624847412e-01</leafValues></_>
        <_>
          <internalNodes>
            0 -1 232 -143132417 -506468913 -738017128 -228724501
            1661603843 -1979705086 874733685 1346893439</internalNodes>
          <leafValues>
            -5.2450162172317505e-01 2.2004799544811249e-01</leafValues></_>
        <_>
          <internalNodes>
            0 -1 212 -892156190 1459654038 -1610463148 185346114
            -108984182 1778530576 2037377450 1784827430</internalNodes>
          <leafValues>
            -5.0006484985351562e-01 2.3045209050178528e-01</leafValues></_>
        <_>
          <internalNodes>
            0 -1 182 -206570561 -468272701 16920592 -866200712
            1804857155 -348728807 -164893628 -389745676</internalNodes>
          <leafValues>
            -5.9673333168029785e-01 1.8696007132530212e-01</leafValues></_>
        <_>
          <internalNodes>
            0 -1 78 -602874864 473612563 -61156868 95427162 -1140848432
            -612364132 -1972954435 772360635</internalNodes>
          <leafValues>
            -5.2650272846221924e-01 2.0997874438762665e-01</leafValues></_>
        <_>
          <internalNodes>
            0 -1 104 338817936 1510007816 1678238064 1594464332
            976214939 -661912416 134717594 136282363</internalNodes>
          <leafValues>
            -3.8885274529457092e-01 2.9836267232894897e-01</leafValues></_>
        <_>
          <internalNodes>
            0 -1 131 1610875952 -1656218608 226563257 500257792
            1628148920 -99483518 -1047870262 549454080</internalNodes>
          <leafValues>
            -4.3412277102470398e-01 2.8767952322959900e-01</leafValues></_>
        <_>
          <internalNodes>
            0 -1 173 -201336093 734327426 1377194594 -268242922
            -211062202 305730 1403109762 1601961947</internalNodes>
          <leafValues>
            -4.6874645352363586e-01 2.6979780197143555e-01</leafValues></_></weakClassifiers></_>
    <!-- stage 13 -->
    <_>
      <maxWeakCount>13</maxWeakCount>
      <stageThreshold>-8.1471300125122070e-01</stageThreshold>
      <weakClassifiers>
        <_>
          <internalNodes>
            0 -1 135 -146801681 -1901133854 -218171664 -84869390
            -268435610 -1939931195 -704645904 -990576641</internalNodes>
          <leafValues>
            -2.4376039206981659e-01 5.0623357295989990e-01</leafValues></_>
        <_>
          <internalNodes>
            0 -1 22 -622411530 -640465738 -778561025 1359086674 1196052
            -382966 -355274758 990015651</internalNodes>
          <leafValues>
            -4.0525031089782715e-01 3.0948054790496826e-01</leafValues></_>
        <_>
          <internalNodes>
            0 -1 225 -40108112 -1140281184 -274020971 -707136259
            -1640497219 528350711 473863422 -1981855269</internalNodes>
          <leafValues>
            -2.8595089912414551e-01 3.9740419387817383e-01</leafValues></_>
        <_>
          <internalNodes>
            0 -1 143 -211815441 -831597622 -1876225870 -991234432
            -132135394 -1366322478 664000352 -588975308</internalNodes>
          <leafValues>
            -6.0969007015228271e-01 1.8536631762981415e-01</leafValues></_>
        <_>
          <internalNodes>
            0 -1 5 18030762 994196643 -1861670503 1508072140 -1567936338
            -1451089885 -1333051157 -782782321</internalNodes>
          <leafValues>
            -3.8850182294845581e-01 2.9885512590408325e-01</leafValues></_>
        <_>
          <internalNodes>
            0 -1 172 -1625597702 -1850458046 1887490196 1435442322
            170150108 -368946936 -2113083142 -817172388</internalNodes>
          <leafValues>
            -3.6091616749763489e-01 2.9837462306022644e-01</leafValues></_>
        <_>
          <internalNodes>
            0 -1 240 -294195598 459669538 1091110103 2132942898
            1360397346 -359587836 786827490 1597457202</internalNodes>
          <leafValues>
            -4.1994547843933105e-01 2.7933612465858459e-01</leafValues></_>
        <_>
          <internalNodes>
            0 -1 235 -461190988 -73399131 -1095827713 -440751665
            2099330557 -1099923715 1832848443 -38282089</internalNodes>
          <leafValues>
            -3.0283057689666748e-01 3.7296217679977417e-01</leafValues></_>
        <_>
          <internalNodes>
            0 -1 3 -691561576 -1814855590 -1743399166 -1958743864
            134899848 154173476 1531537416 166721848</internalNodes>
          <leafValues>
            -4.6074864268302917e-01 2.5118967890739441e-01</leafValues></_>
        <_>
          <internalNodes>
            0 -1 24 -703184843 -650770745 -1014885665 2031618526
            1941071472 -247330765 992258527 421683191</internalNodes>
          <leafValues>
            -4.0671986341476440e-01 2.7880567312240601e-01</leafValues></_>
        <_>
          <internalNodes>
            0 -1 140 -1076904977 734499206 -1874777546 -2041235947
            -613741785 -1937604308 -1721798507 -152852253</internalNodes>
          <leafValues>
            -4.4615945219993591e-01 2.5430417060852051e-01</leafValues></_>
        <_>
          <internalNodes>
            0 -1 54 1212783131 -740034373 5189883 295942911 -61879885
            -1696168598 1081321691 -449339013</internalNodes>
          <leafValues>
            -2.5509524345397949e-01 4.7346806526184082e-01</leafValues></_>
        <_>
          <internalNodes>
            0 -1 187 151574896 -590294112 -1341021733 -172006184
            -1868848488 -558317528 167809266 442175640</internalNodes>
          <leafValues>
            -4.4341257214546204e-01 2.7285450696945190e-01</leafValues></_></weakClassifiers></_>
    <!-- stage 14 -->
    <_>
      <maxWeakCount>14</maxWeakCount>
      <stageThreshold>-8.9496862888336182e-01</stageThreshold>
      <weakClassifiers>
        <_>
          <internalNodes>
            0 -1 120 -97 -1025314818 -1245396 -1971262554 -33563033
            -297386002 -167968844 -536808080</internalNodes>
          <leafValues>
            -3.4010151028633118e-01 4.6127545833587646e-01</leafValues></_>
        <_>
          <internalNodes>
            0 -1 77 -665784075 -711921925 791383963 187153343 -598353985
            -4456993 993990699 -536873537</internalNodes>
          <leafValues>
            -2.3188991844654083e-01 4.8732092976570129e-01</leafValues></_>
        <_>
          <internalNodes>
            0 -1 153 1612106756 -552351168 -243181609 -116016766
            1086525852 -1413791727 69925580 4407330</internalNodes>
          <leafValues>
            -3.6384245753288269e-01 2.9988136887550354e-01</leafValues></_>
        <_>
          <internalNodes>
            0 -1 20 -196949298 -580968449 -228393127 321990242
            -767505264 -554270763 -9240869 1526952611</internalNodes>
          <leafValues>
            -3.1379476189613342e-01 3.4346488118171692e-01</leafValues></_>
        <_>
          <internalNodes>
            0 -1 216 -522525969 -202223149 1283507418 2086060181
            -1022426609 -559283917 -121959569 -168854693</internalNodes>
          <leafValues>
            -4.0042734146118164e-01 2.5796180963516235e-01</leafValues></_>
        <_>
          <internalNodes>
            0 -1 30 324530449 52237652 286344025 -1961635288 264560784
            -1882486712 -1977503200 -1992561519</internalNodes>
          <leafValues>
            -4.6706509590148926e-01 2.5343236327171326e-01</leafValues></_>
        <_>
          <internalNodes>
            0 -1 188 1050008 -33921656 -787293965 -147405799 -1156039684
            -1160980023 715674364 171050032</internalNodes>
          <leafValues>
            -6.9423240423202515e-01 1.5213103592395782e-01</leafValues></_>
        <_>
          <internalNodes>
            0 -1 110 -82576429 -1069481586 -2141841804 1352041028
            -366871798 -2001821088 1879105786 -596121550</internalNodes>
          <leafValues>
            -4.3533173203468323e-01 2.3602528870105743e-01</leafValues></_>
        <_>
          <internalNodes>
            0 -1 220 -1031282645 -95207417 71516218 -362591168 15402042
            1382488083 1082851371 1618425379</internalNodes>
          <leafValues>
            -4.6595120429992676e-01 2.2926481068134308e-01</leafValues></_>
        <_>
          <internalNodes>
            0 -1 92 228586976 101569280 1368772688 -492179016
            -1684020423 1238945807 -976490272 -1042288700</internalNodes>
          <leafValues>
            -4.9082189798355103e-01 2.0800775289535522e-01</leafValues></_>
        <_>
          <internalNodes>
            0 -1 88 541082130 1561546240 1343422773 486641673 1107301288
            -1366292348 -333248344 -533724928</internalNodes>
          <leafValues>
            -3.3050891757011414e-01 3.2743847370147705e-01</leafValues></_>
        <_>
          <internalNodes>
            0 -1 197 -161483777 -489973366 -1743138624 -622431538
            -1727296690 1241694209 382129872 -799541274</internalNodes>
          <leafValues>
            -4.2201501131057739e-01 2.4890211224555969e-01</leafValues></_>
        <_>
          <internalNodes>
            0 -1 252 -936192998 1082278992 1275085076 -913375208
            273650901 1837724553 138590836 196809303</internalNodes>
          <leafValues>
            -4.0662616491317749e-01 2.6289978623390198e-01</leafValues></_>
        <_>
          <internalNodes>
            0 -1 254 -1374488572 539502716 -2128392195 2108879185
            -1266006912 -527203316 145473560 206526877</internalNodes>
          <leafValues>
            -4.5183104276657104e-01 2.3683358728885651e-01</leafValues></_></weakClassifiers></_>
    <!-- stage 15 -->
    <_>
      <maxWeakCount>14</maxWeakCount>
      <stageThreshold>-8.6173564195632935e-01</stageThreshold>
      <weakClassifiers>
        <_>
          <internalNodes>
            0 -1 94 -193 -936968274 -1308885214 -531306432 -2269
            -2072576018 2113404336 -1001062448</internalNodes>
          <leafValues>
            -3.2344552874565125e-01 4.5457240939140320e-01</leafValues></_>
        <_>
          <internalNodes>
            0 -1 249 7489694 1404256280 -117096103 1266892802 1746035134
            -1508155350 1649313886 1148077058</internalNodes>
          <leafValues>
            -4.7883197665214539e-01 2.3429401218891144e-01</leafValues></_>
        <_>
          <internalNodes>
            0 -1 101 -867934980 483921947 -785233569 1064827417
            -636724772 -338771797 -71664662 -1148565399</internalNodes>
          <leafValues>
            -3.5165160894393921e-01 3.0027440190315247e-01</leafValues></_>
        <_>
          <internalNodes>
            0 -1 159 -205524254 -1932863802 -803537262 -791268224
            -73520576 -872120320 -783129611 -1051198486</internalNodes>
          <leafValues>
            -4.8416173458099365e-01 1.9960868358612061e-01</leafValues></_>
        <_>
          <internalNodes>
            0 -1 109 1752129563 -137662909 81213567 -773414837
            -867873606 -109295788 1685379834 -868028194</internalNodes>
          <leafValues>
            -3.0981057882308960e-01 3.4595745801925659e-01</leafValues></_>
        <_>
          <internalNodes>
            0 -1 37 -538978543 551310538 1964251519 164319711
            -1431581749 -1997815157 -1834901376 150942607</internalNodes>
          <leafValues>
            -3.9009648561477661e-01 2.6248362660408020e-01</leafValues></_>
        <_>
          <internalNodes>
            0 -1 0 1731650302 2031256082 1074856219 -748797154
            1612492970 -2117636086 12585279 2117288051</internalNodes>
          <leafValues>
            -3.1933832168579102e-01 3.3447656035423279e-01</leafValues></_>
        <_>
          <internalNodes>
            0 -1 228 -765728006 -539568959 446933046 1882381338
            -126137780 -587087518 -737050480 -169870253</internalNodes>
          <leafValues>
            -3.9092320203781128e-01 2.5922420620918274e-01</leafValues></_>
        <_>
          <internalNodes>
            0 -1 210 -1073724844 -112164807 -1953451819 -217034928
            541074348 -87452456 697338540 671088640</internalNodes>
          <leafValues>
            -4.2168942093849182e-01 2.4701815843582153e-01</leafValues></_>
        <_>
          <internalNodes>
            0 -1 34 287447059 350725946 -1607274221 -201593097
            -688803854 -1929449685 -1831618357 -916369933</internalNodes>
          <leafValues>
            -2.8515586256980896e-01 4.0797454118728638e-01</leafValues></_>
        <_>
          <internalNodes>
            0 -1 233 -194337098 1280704595 -2074457006 1080214598
            877085760 1465565483 -1062767853 1968653911</internalNodes>
          <leafValues>
            -6.9974893331527710e-01 1.5710742771625519e-01</leafValues></_>
        <_>
          <internalNodes>
            0 -1 43 -74986298 403177563 -704457955 705763150 647365880
            494929041 -1170155106 -620565793</internalNodes>
          <leafValues>
            -3.2880452275276184e-01 3.3175012469291687e-01</leafValues></_>
        <_>
          <internalNodes>
            0 -1 253 -148638928 -2145332016 -1056714275 -582134440
            -1562313736 -1953300093 28408217 1567965393</internalNodes>
          <leafValues>
            -3.5628971457481384e-01 3.0713951587677002e-01</leafValues></_>
        <_>
          <internalNodes>
            0 -1 180 -686832165 -422639657 -1878271978 -355184290
            -883226621 -853377021 -1153271504 -462097580</internalNodes>
          <leafValues>
            -6.9205838441848755e-01 1.5644356608390808e-01</leafValues></_></weakClassifiers></_>
    <!-- stage 16 -->
    <_>
      <maxWeakCount>16</maxWeakCount>
      <stageThreshold>-9.7821968793869019e-01</stageThreshold>
      <weakClassifiers>
        <_>
          <internalNodes>
            0 -1 84 1558189172 1027366911 2146713081 -168198788
            -270204964 -65540 -547817476 984095104</internalNodes>
          <leafValues>
            -3.8123753666877747e-01 4.3918821215629578e-01</leafValues></_>
        <_>
          <internalNodes>
            0 -1 97 -649866881 -431040284 -1860980362 -923869118
            -37768013 -190932477 -888145247 -1060634641</internalNodes>
          <leafValues>
            -3.3562976121902466e-01 3.3065569400787354e-01</leafValues></_>
        <_>
          <internalNodes>
            0 -1 124 -585836075 -753346173 -243235905 205750589
            -875626095 -13916029 -1664410561 484391755</internalNodes>
          <leafValues>
            -3.6238938570022583e-01 2.9020011425018311e-01</leafValues></_>
        <_>
          <internalNodes>
            0 -1 27 1090699712 -783279872 1342283681 -712847070 9111976
            1753352192 1107413160 1078312960</internalNodes>
          <leafValues>
            -3.9570072293281555e-01 2.8124186396598816e-01</leafValues></_>
        <_>
          <internalNodes>
            0 -1 62 927986997 262906146 -2029989729 797172362
            -2106630597 -441384960 -787765039 -1879342919</internalNodes>
          <leafValues>
            -3.8941729068756104e-01 2.6409026980400085e-01</leafValues></_>
        <_>
          <internalNodes>
            0 -1 83 -549980460 -569316720 682588351 2077349005
            -701565444 -562767392 160612602 -1742535661</internalNodes>
          <leafValues>
            -3.2522365450859070e-01 3.4078156948089600e-01</leafValues></_>
        <_>
          <internalNodes>
            0 -1 59 20972831 1561067520 1073762418 -796878574 135070347
            789252105 1342247066 -259555198</internalNodes>
          <leafValues>
            -4.5005178451538086e-01 2.5442305207252502e-01</leafValues></_>
        <_>
          <internalNodes>
            0 -1 218 -36963329 -478702647 -2133794606 -689192902
            -474028734 -484212480 33681922 -783812240</internalNodes>
          <leafValues>
            -4.7407099604606628e-01 2.3160189390182495e-01</leafValues></_>
        <_>
          <internalNodes>
            0 -1 196 -12617505 -278462482 2021095347 1540685004
            -276899888 -2067333372 -2022375428 -581765281</internalNodes>
          <leafValues>
            -3.0081632733345032e-01 3.5827639698982239e-01</leafValues></_>
        <_>
          <internalNodes>
            0 -1 87 445654200 1039270356 687968599 457314394 -1438324292
            -23017326 675938952 188350680</internalNodes>
          <leafValues>
            -5.7005780935287476e-01 1.8581941723823547e-01</leafValues></_>
        <_>
          <internalNodes>
            0 -1 157 -196343121 1342373985 945300759 -570277090
            143279144 -399900608 -2130567093 -581484466</internalNodes>
          <leafValues>
            -3.7126743793487549e-01 2.8584533929824829e-01</leafValues></_>
        <_>
          <internalNodes>
            0 -1 134 -1252262917 -646350208 746125297 -648677318
            -1644331028 -806060252 -1806237974 -853541560</internalNodes>
          <leafValues>
            -2.5852033495903015e-01 4.3132546544075012e-01</leafValues></_>
        <_>
          <internalNodes>
            0 -1 12 -494682112 1093780 -2080220928 167985668 16843009
            436339722 864486144 1352005503</internalNodes>
          <leafValues>
            -5.2551364898681641e-01 2.2815810143947601e-01</leafValues></_>
        <_>
          <internalNodes>
            0 -1 90 1435498146 88338690 1915754706 -676967390 471855506
            -1744633792 285919428 -1525418385</internalNodes>
          <leafValues>
            -4.2529800534248352e-01 2.3524203896522522e-01</leafValues></_>
        <_>
          <internalNodes>
            0 -1 45 -1025884148 -661764475 -1072638893 -440770427
            1142997522 -1151136640 -1299645299 589463538</internalNodes>
          <leafValues>
            -4.6493634581565857e-01 2.3179027438163757e-01</leafValues></_>
        <_>
          <internalNodes>
            0 -1 247 -490306906 -622411765 273411282 -731772282
            1074489932 -364765118 302006553 1885820183</internalNodes>
          <leafValues>
            -5.5290365219116211e-01 1.9821715354919434e-01</leafValues></_></weakClassifiers></_>
    <!-- stage 17 -->
    <_>
      <maxWeakCount>15</maxWeakCount>
      <stageThreshold>-7.8346693515777588e-01</stageThreshold>
      <weakClassifiers>
        <_>
          <internalNodes>
            0 -1 203 2146080 -288948249 -160761104 -55115791 -832178348
            -866254977 -699009088 -34210049</internalNodes>
          <leafValues>
            -2.3217549920082092e-01 4.7655260562896729e-01</leafValues></_>
        <_>
          <internalNodes>
            0 -1 73 -749997776 55024514 1392905618 -2087088757
            -1207180357 -808878071 1904276475 1202714511</internalNodes>
          <leafValues>
            -3.2134965062141418e-01 3.2856285572052002e-01</leafValues></_>
        <_>
          <internalNodes>
            0 -1 91 36151935 -676657076 -1003658177 -146070853
            1699734250 -152698878 1179966095 -263925538</internalNodes>
          <leafValues>
            -3.2265692949295044e-01 3.6041471362113953e-01</leafValues></_>
        <_>
          <internalNodes>
            0 -1 236 -1189942624 -1685551888 -2028877603 -1108356707
            990331439 949879427 768561407 -11793</internalNodes>
          <leafValues>
            -2.9068484902381897e-01 3.7006196379661560e-01</leafValues></_>
        <_>
          <internalNodes>
            0 -1 126 -174467589 -1361145454 -1952811790 686203528
            -132554649 -880180598 -586147582 -263852462</internalNodes>
          <leafValues>
            -4.6366733312606812e-01 2.0643459260463715e-01</leafValues></_>
        <_>
          <internalNodes>
            0 -1 44 -104271621 -805303638 -1730297377 -611742349
            -1725910896 -2012544480 1542533295 191325070</internalNodes>
          <leafValues>
            -2.9224753379821777e-01 3.4888708591461182e-01</leafValues></_>
        <_>
          <internalNodes>
            0 -1 38 -1754268927 67295488 -774973295 499763443
            -2002091295 -1433583397 1753468160 8645923</internalNodes>
          <leafValues>
            -4.9922755360603333e-01 2.0283849537372589e-01</leafValues></_>
        <_>
          <internalNodes>
            0 -1 6 -29999529 -1686978432 -1021098429 286263616 285279900
            44073315 919851 1211304514</internalNodes>
          <leafValues>
            -3.3851185441017151e-01 3.0254510045051575e-01</leafValues></_>
        <_>
          <internalNodes>
            0 -1 21 -622967646 -599064549 -780122661 134217922 811766130
            2114463890 -2130392214 993187171</internalNodes>
          <leafValues>
            -4.2618852853775024e-01 2.4792665243148804e-01</leafValues></_>
        <_>
          <internalNodes>
            0 -1 200 -212876594 -882880288 -1802468142 -758246434
            -632560818 -282517504 -1039076800 -700132864</internalNodes>
          <leafValues>
            -6.0457032918930054e-01 1.5087984502315521e-01</leafValues></_>
        <_>
          <internalNodes>
            0 -1 1 -2110553901 -1822377120 -1580602241 -1221073663
            -1465744920 -1411025432 1102024600 -339262400</internalNodes>
          <leafValues>
            -1.9869807362556458e-01 5.2643507719039917e-01</leafValues></_>
        <_>
          <internalNodes>
            0 -1 69 -666844532 1490490251 -787726069 38801796 -98515012
            -225924727 -225871094 -1843346461</internalNodes>
          <leafValues>
            -3.3537679910659790e-01 3.1208446621894836e-01</leafValues></_>
        <_>
          <internalNodes>
            0 -1 192 1784610666 1595310798 -2147447588 1350603802
            -1878671094 -1475968470 -1048440386 -665855618</internalNodes>
          <leafValues>
            -3.6792129278182983e-01 2.8554737567901611e-01</leafValues></_>
        <_>
          <internalNodes>
            0 -1 239 303567048 -217967727 -409872299 1402608148
            -1308041065 -1131691904 -1692223285 1057489080</internalNodes>
          <leafValues>
            -6.4588463306427002e-01 1.5702387690544128e-01</leafValues></_>
        <_>
          <internalNodes>
            0 -1 50 -169004645 -203964660 -118202401 -137680340
            2111201211 -1169879265 -855825717 -687267141</internalNodes>
          <leafValues>
            -2.2865845263004303e-01 4.9773654341697693e-01</leafValues></_></weakClassifiers></_>
    <!-- stage 18 -->
    <_>
      <maxWeakCount>16</maxWeakCount>
      <stageThreshold>-8.7421083450317383e-01</stageThreshold>
      <weakClassifiers>
        <_>
          <internalNodes>
            0 -1 221 -1610616873 -986716185 -134222212 -622134546
            -134228139 -52428969 -312166844 -469434812</internalNodes>
          <leafValues>
            -2.6231154799461365e-01 4.6420890092849731e-01</leafValues></_>
        <_>
          <internalNodes>
            0 -1 123 -649205771 -1693319765 -1976849841 -1349539089
            -15204353 -545947795 842345007 -545261729</internalNodes>
          <leafValues>
            -2.1494404971599579e-01 4.9646461009979248e-01</leafValues></_>
        <_>
          <internalNodes>
            0 -1 76 -472664012 233259010 2097254737 -39861887
            -2104828683 -870432536 1368110773 -905970529</internalNodes>
          <leafValues>
            -3.2778665423393250e-01 3.1870698928833008e-01</leafValues></_>
        <_>
          <internalNodes>
            0 -1 8 1091260435 1440739875 28455155 -243798358 1347720442
            -2075139295 1767346635 -579866053</internalNodes>
          <leafValues>
            -2.0296743512153625e-01 5.0991976261138916e-01</leafValues></_>
        <_>
          <internalNodes>
            0 -1 106 1088682560 -1654446329 -637536419 1373205494
            1834934431 -100862764 -394687570 -502283770</internalNodes>
          <leafValues>
            -2.8114056587219238e-01 3.5949805378913879e-01</leafValues></_>
        <_>
          <internalNodes>
            0 -1 49 1342437851 -82798308 152130908 830554178 1556513002
            1071644821 60842441 982172074</internalNodes>
          <leafValues>
            -3.1574368476867676e-01 3.1527507305145264e-01</leafValues></_>
        <_>
          <internalNodes>
            0 -1 160 -4458798 210215218 1348087826 -132976038 21609028
            -2113797606 1142534804 -988284713</internalNodes>
          <leafValues>
            -4.5458683371543884e-01 2.2251710295677185e-01</leafValues></_>
        <_>
          <internalNodes>
            0 -1 96 -474750194 -1370094966 -418359004 718467336
            -796292328 -358448637 1799600513 -456852284</internalNodes>
          <leafValues>
            -5.6703853607177734e-01 1.8313227593898773e-01</leafValues></_>
        <_>
          <internalNodes>
            0 -1 19 -825244422 1440407963 -787953825 1090732035
            606079186 -612235134 -493814113 1258504743</internalNodes>
          <leafValues>
            -3.2680079340934753e-01 3.3232444524765015e-01</leafValues></_>
        <_>
          <internalNodes>
            0 -1 170 -461373424 1531098131 1199757373 -216039316
            -1474294584 -1392506591 947927688 2100228</internalNodes>
          <leafValues>
            -4.4425350427627563e-01 2.3612634837627411e-01</leafValues></_>
        <_>
          <internalNodes>
            0 -1 224 -10227272 -1138177608 633008245 -1182419 2004713343
            777420660 1970783625 -101722723</internalNodes>
          <leafValues>
            -2.7207079529762268e-01 3.9553469419479370e-01</leafValues></_>
        <_>
          <internalNodes>
            0 -1 56 -1691566832 -1109569000 1904250079 -583714382
            -1979013431 -75038496 -1970427233 251142440</internalNodes>
          <leafValues>
            -4.3655905127525330e-01 2.4715200066566467e-01</leafValues></_>
        <_>
          <internalNodes>
            0 -1 137 -249965618 -2100836600 -804945856 -1601503218
            -636870135 -1974419445 595732518 -247407813</internalNodes>
          <leafValues>
            -5.7211434841156006e-01 1.9204275310039520e-01</leafValues></_>
        <_>
          <internalNodes>
            0 -1 51 1429930135 -134501608 1627240701 -1014280205
            -641936229 -546610637 -504362785 -720129317</internalNodes>
          <leafValues>
            -2.6746866106987000e-01 4.4682672619819641e-01</leafValues></_>
        <_>
          <internalNodes>
            0 -1 11 1008707473 -1142838115 2130329143 1953506866
            1616774749 1043560343 -1074266209 589772019</internalNodes>
          <leafValues>
            -3.1715029478073120e-01 3.5105696320533752e-01</leafValues></_>
        <_>
          <internalNodes>
            0 -1 223 -804528673 -1122778878 -2147463732 -2042642425
            -234135438 -3602428 1629634628 -197664297</internalNodes>
          <leafValues>
            -4.2115855216979980e-01 2.6005008816719055e-01</leafValues></_></weakClassifiers></_>
    <!-- stage 19 -->
    <_>
      <maxWeakCount>17</maxWeakCount>
      <stageThreshold>-1.2053300142288208e+00</stageThreshold>
      <weakClassifiers>
        <_>
          <internalNodes>
            0 -1 198 -67144722 1323728878 -83958224 -792395796 -9371900
            -280494524 -261031980 -11207084</internalNodes>
          <leafValues>
            -3.3293268084526062e-01 4.4675248861312866e-01</leafValues></_>
        <_>
          <internalNodes>
            0 -1 147 -720844332 529033148 289655321 -1350589988
            -1419105905 -610656118 1489138282 -1121320960</internalNodes>
          <leafValues>
            -3.2582318782806396e-01 3.1853526830673218e-01</leafValues></_>
        <_>
          <internalNodes>
            0 -1 183 -897322017 -398028717 1343996400 -285830572
            -905738223 -1744486225 -609629596 -455806140</internalNodes>
          <leafValues>
            -5.8097618818283081e-01 1.7734046280384064e-01</leafValues></_>
        <_>
          <internalNodes>
            0 -1 16 -771559280 -612236911 1346716829 1468785028
            -2113887872 -1744819581 407079579 193028635</internalNodes>
          <leafValues>
            -3.7327921390533447e-01 2.7693021297454834e-01</leafValues></_>
        <_>
          <internalNodes>
            0 -1 193 2090661691 1074135061 -1635629290 -595197885
            1779783523 1782188306 -1969080230 -8393973</internalNodes>
          <leafValues>
            -3.3936259150505066e-01 3.0995282530784607e-01</leafValues></_>
        <_>
          <internalNodes>
            0 -1 63 311604532 -1691922367 -1610416103 -1215318696
            -1977949781 -1736236798 1230673945 150939692</internalNodes>
          <leafValues>
            -4.5293611288070679e-01 2.4043974280357361e-01</leafValues></_>
        <_>
          <internalNodes>
            0 -1 13 -1603747808 500900240 1393576988 -634202944
            289423632 -1055850368 1905935640 -214438385</internalNodes>
          <leafValues>
            -3.7092211842536926e-01 2.8272518515586853e-01</leafValues></_>
        <_>
          <internalNodes>
            0 -1 133 -1115694369 300973944 -1427838988 1566899962
            -317402404 -1126924466 -302590497 -587008577</internalNodes>
          <leafValues>
            -2.2690787911415100e-01 4.6232423186302185e-01</leafValues></_>
        <_>
          <internalNodes>
            0 -1 211 76809264 394264580 -1609268770 891158536 202434732
            -58687406 -261742360 136329476</internalNodes>
          <leafValues>
            -4.2036104202270508e-01 2.4645499885082245e-01</leafValues></_>
        <_>
          <internalNodes>
            0 -1 158 -9187385 -813606144 1883263490 -29305574
            -1703337394 -900038655 268468929 -540018513</internalNodes>
          <leafValues>
            -3.3311465382575989e-01 3.2132041454315186e-01</leafValues></_>
        <_>
          <internalNodes>
            0 -1 251 -1064899914 37965895 -771698422 780143174
            1091502585 2087321739 202098738 1229418535</internalNodes>
          <leafValues>
            -4.1902640461921692e-01 2.5200140476226807e-01</leafValues></_>
        <_>
          <internalNodes>
            0 -1 255 35842288 38408 85184792 -1115385456 274461323
            -1398611437 268667136 209144970</internalNodes>
          <leafValues>
            -4.4869795441627502e-01 2.3611496388912201e-01</leafValues></_>
        <_>
          <internalNodes>
            0 -1 257 301074033 -296050540 -880642727 -108629571
            514368645 -125157349 -1953617892 1069837200</internalNodes>
          <leafValues>
            -4.3900915980339050e-01 2.5147891044616699e-01</leafValues></_>
        <_>
          <internalNodes>
            0 -1 119 -578561701 1117253959 743706912 -1058254518
            -2088009386 -1467842533 -1711553930 -1006316476</internalNodes>
          <leafValues>
            -5.6317412853240967e-01 1.6906021535396576e-01</leafValues></_>
        <_>
          <internalNodes>
            0 -1 102 -269990787 -1220328639 -2147286821 -82358261
            -634910516 -360079326 125880473 -1708078856</internalNodes>
          <leafValues>
            -3.8043364882469177e-01 2.7390217781066895e-01</leafValues></_>
        <_>
          <internalNodes>
            0 -1 100 -329983804 -1876901837 82061 -846887933 -400822243
            -243300216 1107935439 119652371</internalNodes>
          <leafValues>
            -3.4045147895812988e-01 3.0680221319198608e-01</leafValues></_>
        <_>
          <internalNodes>
            0 -1 61 1645739232 21168264 1342183856 -1920007168
            -2147432311 -1723203582 1216547248 -2023234880</internalNodes>
          <leafValues>
            -4.7843205928802490e-01 2.3024792969226837e-01</leafValues></_></weakClassifiers></_>
    <!-- stage 20 -->
    <_>
      <maxWeakCount>16</maxWeakCount>
      <stageThreshold>-8.1734490394592285e-01</stageThreshold>
      <weakClassifiers>
        <_>
          <internalNodes>
            0 -1 99 -671033123 -662642707 238094349 -1355698691
            1448599551 -612655235 490020635 -1671490057</internalNodes>
          <leafValues>
            -1.3005780056118965e-02 5.8739650249481201e-01</leafValues></_>
        <_>
          <internalNodes>
            0 -1 242 -359243570 1296449552 276861634 1917763798
            1782793794 1226548066 1904564742 1902607734</internalNodes>
          <leafValues>
            -5.6023573875427246e-01 2.0324346423149109e-01</leafValues></_>
        <_>
          <internalNodes>
            0 -1 156 -1712595973 -229844772 -1828447996 1981055254
            -649860266 -938999292 -2130126084 -850407347</internalNodes>
          <leafValues>
            -3.2012793421745300e-01 3.1143751740455627e-01</leafValues></_>
        <_>
          <internalNodes>
            0 -1 4 40600065 63505271 165770163 -34377055 885469570
            674441856 -2137540021 -1070369965</internalNodes>
          <leafValues>
            -3.0630221962928772e-01 3.1162819266319275e-01</leafValues></_>
        <_>
          <internalNodes>
            0 -1 256 -243076236 1907626388 -285161895 -787451848
            -1199476077 -2104303488 -1864195442 -1083224911</internalNodes>
          <leafValues>
            -3.1405228376388550e-01 2.9855459928512573e-01</leafValues></_>
        <_>
          <internalNodes>
            0 -1 213 1464824283 -1046339376 83887364 1607266476
            -2006652800 -929463804 313557168 -111126143</internalNodes>
          <leafValues>
            -3.7489521503448486e-01 2.5984582304954529e-01</leafValues></_>
        <_>
          <internalNodes>
            0 -1 250 1656884318 1769669019 1377882137 2030191718
            1235313216 35332250 -383425782 2144757842</internalNodes>
          <leafValues>
            -4.2283675074577332e-01 2.3009395599365234e-01</leafValues></_>
        <_>
          <internalNodes>
            0 -1 79 -983280432 491338497 -1837039309 67851 -1051948548
            -91717494 -1324844241 -107943678</internalNodes>
          <leafValues>
            -3.2429030537605286e-01 3.1858772039413452e-01</leafValues></_>
        <_>
          <internalNodes>
            0 -1 227 -926905344 1365052033 67176541 1496912384 704737994
            -1683881848 -866087240 11542568</internalNodes>
          <leafValues>
            -4.1544735431671143e-01 2.4921263754367828e-01</leafValues></_>
        <_>
          <internalNodes>
            0 -1 36 927187679 -685381070 271818867 1369961114 92266221
            1313197673 272084203 -799549879</internalNodes>
          <leafValues>
            -2.9563638567924500e-01 3.4736806154251099e-01</leafValues></_>
        <_>
          <internalNodes>
            0 -1 67 -2046305515 -2132926602 -50339845 -2136903804
            -50481153 -1729372170 -1950422789 -2137276929</internalNodes>
          <leafValues>
            -2.7167126536369324e-01 4.2786461114883423e-01</leafValues></_>
        <_>
          <internalNodes>
            0 -1 165 -138561033 -1545875255 269552226 573545007
            -794281973 -2113863639 -2129526222 633815867</internalNodes>
          <leafValues>
            -4.4776856899261475e-01 2.3692014813423157e-01</leafValues></_>
        <_>
          <internalNodes>
            0 -1 189 -185140698 319922626 -2147215332 1465417742
            1477082120 1045037314 319851468 269440546</internalNodes>
          <leafValues>
            -4.2987054586410522e-01 2.3629109561443329e-01</leafValues></_>
        <_>
          <internalNodes>
            0 -1 127 -669462320 -1191182331 1093097154 990118503
            -1843165183 -1920401375 -2075524967 168362341</internalNodes>
          <leafValues>
            -5.1786845922470093e-01 1.9035124778747559e-01</leafValues></_>
        <_>
          <internalNodes>
            0 -1 53 16958736 201834504 1073779217 -577011128 570723096
            -2009453812 1209172528 -2002913048</internalNodes>
          <leafValues>
            -5.5020385980606079e-01 1.9776718318462372e-01</leafValues></_>
        <_>
          <internalNodes>
            0 -1 244 -464869706 -804528036 -1270509097 -187637724
            277037641 1258461707 797118763 -538496941</internalNodes>
          <leafValues>
            -4.3283450603485107e-01 2.3909729719161987e-01</leafValues></_></weakClassifiers></_>
    <!-- stage 21 -->
    <_>
      <maxWeakCount>16</maxWeakCount>
      <stageThreshold>-1.0570836067199707e+00</stageThreshold>
      <weakClassifiers>
        <_>
          <internalNodes>
            0 -1 111 -134218762 -1949369952 351680048 -1058265232 -55550
            -1930494138 -1678463994 -2008879288</internalNodes>
          <leafValues>
            -3.1349861621856689e-01 4.5908752083778381e-01</leafValues></_>
        <_>
          <internalNodes>
            0 -1 115 -1073762441 -2092192857 671033267 761510455
            -402698177 -1947361345 -1125681262 -540279301</internalNodes>
          <leafValues>
            -2.6826229691505432e-01 3.6543816328048706e-01</leafValues></_>
        <_>
          <internalNodes>
            0 -1 152 67108864 498077730 222370549 904139152 1078989228
            -301711360 -1577054072 538968064</internalNodes>
          <leafValues>
            -4.5966258645057678e-01 2.1600621938705444e-01</leafValues></_>
        <_>
          <internalNodes>
            0 -1 194 -669453602 -635666421 131300 1892417799 403704642
            -368865280 -1333548502 -1821119362</internalNodes>
          <leafValues>
            -3.8069730997085571e-01 2.8141531348228455e-01</leafValues></_>
        <_>
          <internalNodes>
            0 -1 14 -108800781 -640487693 -1356110433 -634665550
            -887959264 -1703258819 -1456223761 -538977305</internalNodes>
          <leafValues>
            -2.0963881909847260e-01 5.5660134553909302e-01</leafValues></_>
        <_>
          <internalNodes>
            0 -1 222 -48766217 -27586047 10535118 -301387662 2022254695
            -204371439 1905263104 -260846905</internalNodes>
          <leafValues>
            -4.8469901084899902e-01 1.9664189219474792e-01</leafValues></_>
        <_>
          <internalNodes>
            0 -1 60 -462012233 1568136803 -1896425738 -236769870
            905108652 -146415753 -856127590 -1078835493</internalNodes>
          <leafValues>
            -2.7537640929222107e-01 3.8413584232330322e-01</leafValues></_>
        <_>
          <internalNodes>
            0 -1 23 -633300769 -637643180 1138828275 19636914 1430307536
            -847980592 1575183355 -16165257</internalNodes>
          <leafValues>
            -2.6209127902984619e-01 4.0143951773643494e-01</leafValues></_>
        <_>
          <internalNodes>
            0 -1 176 -178555909 -935264251 1543766146 -131481596
            -2111803104 -1568030192 -2145345536 -117382898</internalNodes>
          <leafValues>
            -4.2424073815345764e-01 2.2899615764617920e-01</leafValues></_>
        <_>
          <internalNodes>
            0 -1 55 290574608 4701258 -1845431272 -1824456567 1804960353
            960693376 93962928 150721339</internalNodes>
          <leafValues>
            -5.4321682453155518e-01 1.8642391264438629e-01</leafValues></_>
        <_>
          <internalNodes>
            0 -1 226 -1558001389 344621628 16945179 -2522795 -1954446343
            157438080 135859418 441958532</internalNodes>
          <leafValues>
            -3.6458325386047363e-01 2.7887135744094849e-01</leafValues></_>
        <_>
          <internalNodes>
            0 -1 258 -124794576 1066808368 -16880195 498707562
            -272986668 1870601724 1584938040 147310767</internalNodes>
          <leafValues>
            -2.7667400240898132e-01 3.6190471053123474e-01</leafValues></_>
        <_>
          <internalNodes>
            0 -1 117 -645676609 -898710986 83960208 -489028094 492115
            -2004729693 -1817590944 -990608592</internalNodes>
          <leafValues>
            -6.2374877929687500e-01 1.6500544548034668e-01</leafValues></_>
        <_>
          <internalNodes>
            0 -1 52 51380955 1374678574 -219089097 -206655746 366827947
            -75497966 1375193305 -891862833</internalNodes>
          <leafValues>
            -2.2901928424835205e-01 4.8541611433029175e-01</leafValues></_>
        <_>
          <internalNodes>
            0 -1 230 -242760774 -40431357 268501064 -233749094
            -1610528946 1241981195 -485990252 1429452503</internalNodes>
          <leafValues>
            -4.3391016125679016e-01 2.5749242305755615e-01</leafValues></_>
        <_>
          <internalNodes>
            0 -1 47 1611014156 -778682085 822117403 428474374 1755325170
            -257816315 155224523 721424546</internalNodes>
          <leafValues>
            -5.2343779802322388e-01 1.9937115907669067e-01</leafValues></_></weakClassifiers></_>
    <!-- stage 22 -->
    <_>
      <maxWeakCount>18</maxWeakCount>
      <stageThreshold>-8.5165369510650635e-01</stageThreshold>
      <weakClassifiers>
        <_>
          <internalNodes>
            0 -1 42 -802041647 -930788105 -541128435 233769779
            -1760542528 -1927258658 -8565681 150327231</internalNodes>
          <leafValues>
            -7.8255675733089447e-02 5.3610247373580933e-01</leafValues></_>
        <_>
          <internalNodes>
            0 -1 136 286513147 -1996231936 339741008 -1006497632
            -1281105268 -2109077215 -620450954 -1000670828</internalNodes>
          <leafValues>
            -4.4391250610351562e-01 2.3538301885128021e-01</leafValues></_>
        <_>
          <internalNodes>
            0 -1 181 1359081951 1544389377 1392578762 -65011198
            -1702186700 -1154807550 -1546072012 -261035120</internalNodes>
          <leafValues>
            -5.4068011045455933e-01 1.6664025187492371e-01</leafValues></_>
        <_>
          <internalNodes>
            0 -1 74 -819539521 1463283502 1612882443 -247730463
            1333767327 -1905272977 -793386609 -805592573</internalNodes>
          <leafValues>
            -1.9343836605548859e-01 5.1070857048034668e-01</leafValues></_>
        <_>
          <internalNodes>
            0 -1 70 -1844099879 1367752848 487165979 299454673
            -1194724888 -387435358 17379562 456671368</internalNodes>
          <leafValues>
            -4.1375198960304260e-01 2.0545201003551483e-01</leafValues></_>
        <_>
          <internalNodes>
            0 -1 171 -797818614 1108365327 -2080370881 738329611
            687866666 708509776 -1731577602 -893236370</internalNodes>
          <leafValues>
            -3.9848017692565918e-01 2.5803416967391968e-01</leafValues></_>
        <_>
          <internalNodes>
            0 -1 215 2069065979 1125519983 1350604998 2064343310
            -234121142 -1457913856 1610658896 -247152304</internalNodes>
          <leafValues>
            -4.3565273284912109e-01 2.2855857014656067e-01</leafValues></_>
        <_>
          <internalNodes>
            0 -1 248 2026013326 857240101 -989822829 1602683012
            1510675455 -1308065386 696387754 1144472106</internalNodes>
          <leafValues>
            -3.7487176060676575e-01 2.5599315762519836e-01</leafValues></_>
        <_>
          <internalNodes>
            0 -1 191 -1742742789 -2014545816 1660350000 1925381696
            1156900488 1160118086 -1669554977 -813697714</internalNodes>
          <leafValues>
            -2.5605100393295288e-01 3.8690036535263062e-01</leafValues></_>
        <_>
          <internalNodes>
            0 -1 7 1665615633 1368047775 805308373 -743849976 614558089
            -2139094629 679733962 135344128</internalNodes>
          <leafValues>
            -3.6715021729469299e-01 2.7160391211509705e-01</leafValues></_>
        <_>
          <internalNodes>
            0 -1 206 -902771563 -2054109609 -2059230457 -1383160383
            -384745161 -1182302040 -398256107 -1657295757</internalNodes>
          <leafValues>
            -3.4488508105278015e-01 2.7585422992706299e-01</leafValues></_>
        <_>
          <internalNodes>
            0 -1 15 -421270990 290998801 1359462421 1610809418
            -1979526892 -360480640 -1658719592 436415234</internalNodes>
          <leafValues>
            -3.2964470982551575e-01 2.9454615712165833e-01</leafValues></_>
        <_>
          <internalNodes>
            0 -1 65 -18874608 659472 793837616 -641204008 -477921112
            159581313 -257056012 145680522</internalNodes>
          <leafValues>
            -4.3158036470413208e-01 2.1871207654476166e-01</leafValues></_>
        <_>
          <internalNodes>
            0 -1 260 -2127908592 208666768 50429981 -1857715576
            -397611850 47349760 -2113682038 414140893</internalNodes>
          <leafValues>
            -4.0001031756401062e-01 2.4891443550586700e-01</leafValues></_>
        <_>
          <internalNodes>
            0 -1 66 -712654823 34952360 -1056832505 143655953
            -2147448555 -1264992019 -1965553662 -2137839181</internalNodes>
          <leafValues>
            -4.5996552705764771e-01 1.9867153465747833e-01</leafValues></_>
        <_>
          <internalNodes>
            0 -1 154 541622355 890290502 -2146331619 327258179
            -1073692543 718110723 8964780 8203</internalNodes>
          <leafValues>
            -3.0208235979080200e-01 3.1714621186256409e-01</leafValues></_>
        <_>
          <internalNodes>
            0 -1 164 -780938294 -825274094 1879689456 -992553210
            206209034 -880697344 -880623039 1145565441</internalNodes>
          <leafValues>
            -6.4103055000305176e-01 1.5048876404762268e-01</leafValues></_>
        <_>
          <internalNodes>
            0 -1 259 -905783280 -1053462884 -277122178 -1112768330
            -2044573250 -1180236572 -956916678 -537145249</internalNodes>
          <leafValues>
            -2.5305694341659546e-01 4.1512334346771240e-01</leafValues></_></weakClassifiers></_></stages>
  <features>
    <_>
      <rect>
        0 0 1 13</rect></_>
    <_>
      <rect>
        0 0 4 1</rect></_>
    <_>
      <rect>
        0 2 6 12</rect></_>
    <_>
      <rect>
        0 3 3 8</rect></_>
    <_>
      <rect>
        0 4 5 12</rect></_>
    <_>
      <rect>
        0 4 6 9</rect></_>
    <_>
      <rect>
        0 11 1 8</rect></_>
    <_>
      <rect>
        0 14 2 6</rect></_>
    <_>
      <rect>
        0 14 6 8</rect></_>
    <_>
      <rect>
        0 17 3 5</rect></_>
    <_>
      <rect>
        0 19 3 6</rect></_>
    <_>
      <rect>
        0 26 1 3</rect></_>
    <_>
      <rect>
        0 29 2 3</rect></_>
    <_>
      <rect>
        0 31 1 2</rect></_>
    <_>
      <rect>
        0 32 2 2</rect></_>
    <_>
      <rect>
        0 34 2 2</rect></_>
    <_>
      <rect>
        0 34 4 2</rect></_>
    <_>
      <rect>
        0 34 6 2</rect></_>
    <_>
      <rect>
        0 35 2 1</rect></_>
    <_>
      <rect>
        0 35 3 1</rect></_>
    <_>
      <rect>
        0 35 4 1</rect></_>
    <_>
      <rect>
        0 36 2 1</rect></_>
    <_>
      <rect>
        0 36 3 1</rect></_>
    <_>
      <rect>
        0 36 5 1</rect></_>
    <_>
      <rect>
        0 37 2 1</rect></_>
    <_>
      <rect>
        0 37 4 1</rect></_>
    <_>
      <rect>
        0 37 6 1</rect></_>
    <_>
      <rect>
        1 0 4 2</rect></_>
    <_>
      <rect>
        1 0 5 13</rect></_>
    <_>
      <rect>
        1 1 6 5</rect></_>
    <_>
      <rect>
        1 2 3 12</rect></_>
    <_>
      <rect>
        1 2 6 11</rect></_>
    <_>
      <rect>
        1 6 6 3</rect></_>
    <_>
      <rect>
        1 7 3 10</rect></_>
    <_>
      <rect>
        1 12 5 8</rect></_>
    <_>
      <rect>
        1 14 6 6</rect></_>
    <_>
      <rect>
        1 19 6 6</rect></_>
    <_>
      <rect>
        1 21 2 3</rect></_>
    <_>
      <rect>
        1 23 2 4</rect></_>
    <_>
      <rect>
        1 23 6 4</rect></_>
    <_>
      <rect>
        1 25 2 4</rect></_>
    <_>
      <rect>
        1 31 6 2</rect></_>
    <_>
      <rect>
        1 32 4 2</rect></_>
    <_>
      <rect>
        1 34 2 1</rect></_>
    <_>
      <rect>
        1 34 6 2</rect></_>
    <_>
      <rect>
        1 35 1 1</rect></_>
    <_>
      <rect>
        1 36 4 1</rect></_>
    <_>
      <rect>
        1 37 3 1</rect></_>
    <_>
      <rect>
        1 37 4 1</rect></_>
    <_>
      <rect>
        1 37 6 1</rect></_>
    <_>
      <rect>
        2 1 6 7</rect></_>
    <_>
      <rect>
        2 3 6 12</rect></_>
    <_>
      <rect>
        2 6 6 9</rect></_>
    <_>
      <rect>
        2 13 2 6</rect></_>
    <_>
      <rect>
        2 15 6 8</rect></_>
    <_>
      <rect>
        2 16 2 3</rect></_>
    <_>
      <rect>
        2 17 1 4</rect></_>
    <_>
      <rect>
        2 18 2 4</rect></_>
    <_>
      <rect>
        2 20 2 5</rect></_>
    <_>
      <rect>
        2 24 6 3</rect></_>
    <_>
      <rect>
        2 35 1 1</rect></_>
    <_>
      <rect>
        3 3 3 6</rect></_>
    <_>
      <rect>
        3 9 2 7</rect></_>
    <_>
      <rect>
        3 15 1 6</rect></_>
    <_>
      <rect>
        3 15 2 3</rect></_>
    <_>
      <rect>
        3 22 1 2</rect></_>
    <_>
      <rect>
        3 30 2 2</rect></_>
    <_>
      <rect>
        3 31 1 1</rect></_>
    <_>
      <rect>
        3 34 1 1</rect></_>
    <_>
      <rect>
        3 34 3 1</rect></_>
    <_>
      <rect>
        3 37 5 1</rect></_>
    <_>
      <rect>
        4 8 3 3</rect></_>
    <_>
      <rect>
        4 13 5 8</rect></_>
    <_>
      <rect>
        4 14 2 4</rect></_>
    <_>
      <rect>
        4 15 4 4</rect></_>
    <_>
      <rect>
        4 19 1 2</rect></_>
    <_>
      <rect>
        4 20 1 2</rect></_>
    <_>
      <rect>
        4 32 4 2</rect></_>
    <_>
      <rect>
        4 33 2 2</rect></_>
    <_>
      <rect>
        4 34 2 1</rect></_>
    <_>
      <rect>
        4 34 5 2</rect></_>
    <_>
      <rect>
        4 35 1 1</rect></_>
    <_>
      <rect>
        4 35 2 1</rect></_>
    <_>
      <rect>
        4 35 5 1</rect></_>
    <_>
      <rect>
        4 36 1 1</rect></_>
    <_>
      <rect>
        4 36 2 1</rect></_>
    <_>
      <rect>
        4 37 2 1</rect></_>
    <_>
      <rect>
        4 37 3 1</rect></_>
    <_>
      <rect>
        5 0 2 1</rect></_>
    <_>
      <rect>
        5 2 2 9</rect></_>
    <_>
      <rect>
        5 3 2 4</rect></_>
    <_>
      <rect>
        5 3 5 12</rect></_>
    <_>
      <rect>
        5 14 1 2</rect></_>
    <_>
      <rect>
        5 16 1 2</rect></_>
    <_>
      <rect>
        5 24 1 2</rect></_>
    <_>
      <rect>
        5 27 1 2</rect></_>
    <_>
      <rect>
        5 28 1 2</rect></_>
    <_>
      <rect>
        5 31 1 1</rect></_>
    <_>
      <rect>
        5 32 2 1</rect></_>
    <_>
      <rect>
        5 32 4 2</rect></_>
    <_>
      <rect>
        5 32 5 2</rect></_>
    <_>
      <rect>
        5 35 2 1</rect></_>
    <_>
      <rect>
        5 36 1 1</rect></_>
    <_>
      <rect>
        5 36 2 1</rect></_>
    <_>
      <rect>
        5 36 5 1</rect></_>
    <_>
      <rect>
        5 37 2 1</rect></_>
    <_>
      <rect>
        6 0 2 2</rect></_>
    <_>
      <rect>
        6 0 3 1</rect></_>
    <_>
      <rect>
        6 0 4 1</rect></_>
    <_>
      <rect>
        6 0 4 11</rect></_>
    <_>
      <rect>
        6 10 3 7</rect></_>
    <_>
      <rect>
        6 12 2 6</rect></_>
    <_>
      <rect>
        6 14 1 2</rect></_>
    <_>
      <rect>
        6 15 1 2</rect></_>
    <_>
      <rect>
        6 17 1 2</rect></_>
    <_>
      <rect>
        6 19 1 2</rect></_>
    <_>
      <rect>
        6 20 2 3</rect></_>
    <_>
      <rect>
        6 23 1 3</rect></_>
    <_>
      <rect>
        6 25 1 3</rect></_>
    <_>
      <rect>
        6 28 1 2</rect></_>
    <_>
      <rect>
        6 29 1 2</rect></_>
    <_>
      <rect>
        6 29 2 2</rect></_>
    <_>
      <rect>
        6 31 2 1</rect></_>
    <_>
      <rect>
        6 31 4 2</rect></_>
    <_>
      <rect>
        6 32 2 2</rect></_>
    <_>
      <rect>
        6 32 4 2</rect></_>
    <_>
      <rect>
        6 33 2 1</rect></_>
    <_>
      <rect>
        6 34 3 2</rect></_>
    <_>
      <rect>
        6 36 2 1</rect></_>
    <_>
      <rect>
        6 37 2 1</rect></_>
    <_>
      <rect>
        6 37 3 1</rect></_>
    <_>
      <rect>
        7 0 1 1</rect></_>
    <_>
      <rect>
        7 0 2 1</rect></_>
    <_>
      <rect>
        7 2 2 6</rect></_>
    <_>
      <rect>
        7 4 2 7</rect></_>
    <_>
      <rect>
        7 11 1 2</rect></_>
    <_>
      <rect>
        7 12 1 3</rect></_>
    <_>
      <rect>
        7 15 2 4</rect></_>
    <_>
      <rect>
        7 15 2 5</rect></_>
    <_>
      <rect>
        7 16 1 2</rect></_>
    <_>
      <rect>
        7 17 1 3</rect></_>
    <_>
      <rect>
        7 18 1 2</rect></_>
    <_>
      <rect>
        7 19 2 2</rect></_>
    <_>
      <rect>
        7 23 1 3</rect></_>
    <_>
      <rect>
        7 24 2 3</rect></_>
    <_>
      <rect>
        7 28 1 2</rect></_>
    <_>
      <rect>
        7 33 2 2</rect></_>
    <_>
      <rect>
        7 35 3 1</rect></_>
    <_>
      <rect>
        7 36 1 1</rect></_>
    <_>
      <rect>
        7 36 2 1</rect></_>
    <_>
      <rect>
        7 37 2 1</rect></_>
    <_>
      <rect>
        7 37 4 1</rect></_>
    <_>
      <rect>
        8 0 2 1</rect></_>
    <_>
      <rect>
        8 0 2 2</rect></_>
    <_>
      <rect>
        8 0 4 1</rect></_>
    <_>
      <rect>
        8 0 4 2</rect></_>
    <_>
      <rect>
        8 5 1 4</rect></_>
    <_>
      <rect>
        8 5 4 9</rect></_>
    <_>
      <rect>
        8 6 1 2</rect></_>
    <_>
      <rect>
        8 7 1 2</rect></_>
    <_>
      <rect>
        8 8 1 2</rect></_>
    <_>
      <rect>
        8 8 3 4</rect></_>
    <_>
      <rect>
        8 11 1 2</rect></_>
    <_>
      <rect>
        8 14 1 2</rect></_>
    <_>
      <rect>
        8 16 1 2</rect></_>
    <_>
      <rect>
        8 19 1 2</rect></_>
    <_>
      <rect>
        8 25 1 3</rect></_>
    <_>
      <rect>
        8 29 2 2</rect></_>
    <_>
      <rect>
        8 37 2 1</rect></_>
    <_>
      <rect>
        8 37 4 1</rect></_>
    <_>
      <rect>
        9 0 1 1</rect></_>
    <_>
      <rect>
        9 1 3 8</rect></_>
    <_>
      <rect>
        9 2 1 4</rect></_>
    <_>
      <rect>
        9 6 1 2</rect></_>
    <_>
      <rect>
        9 7 1 2</rect></_>
    <_>
      <rect>
        9 9 1 3</rect></_>
    <_>
      <rect>
        9 9 2 8</rect></_>
    <_>
      <rect>
        9 10 1 3</rect></_>
    <_>
      <rect>
        9 12 2 7</rect></_>
    <_>
      <rect>
        9 14 1 2</rect></_>
    <_>
      <rect>
        9 24 1 3</rect></_>
    <_>
      <rect>
        9 24 2 2</rect></_>
    <_>
      <rect>
        9 28 1 2</rect></_>
    <_>
      <rect>
        9 29 1 2</rect></_>
    <_>
      <rect>
        9 32 2 1</rect></_>
    <_>
      <rect>
        9 36 1 1</rect></_>
    <_>
      <rect>
        9 36 2 1</rect></_>
    <_>
      <rect>
        9 36 3 1</rect></_>
    <_>
      <rect>
        9 37 2 1</rect></_>
    <_>
      <rect>
        10 0 3 3</rect></_>
    <_>
      <rect>
        10 3 3 12</rect></_>
    <_>
      <rect>
        10 4 1 3</rect></_>
    <_>
      <rect>
        10 4 2 4</rect></_>
    <_>
      <rect>
        10 4 3 8</rect></_>
    <_>
      <rect>
        10 5 2 4</rect></_>
    <_>
      <rect>
        10 7 1 2</rect></_>
    <_>
      <rect>
        10 7 1 4</rect></_>
    <_>
      <rect>
        10 9 1 2</rect></_>
    <_>
      <rect>
        10 10 1 3</rect></_>
    <_>
      <rect>
        10 10 2 3</rect></_>
    <_>
      <rect>
        10 12 1 3</rect></_>
    <_>
      <rect>
        10 16 1 2</rect></_>
    <_>
      <rect>
        10 16 2 3</rect></_>
    <_>
      <rect>
        10 20 1 3</rect></_>
    <_>
      <rect>
        10 25 1 3</rect></_>
    <_>
      <rect>
        10 29 2 2</rect></_>
    <_>
      <rect>
        10 32 2 2</rect></_>
    <_>
      <rect>
        10 35 2 1</rect></_>
    <_>
      <rect>
        10 36 2 1</rect></_>
    <_>
      <rect>
        10 37 2 1</rect></_>
    <_>
      <rect>
        11 0 1 1</rect></_>
    <_>
      <rect>
        11 0 2 1</rect></_>
    <_>
      <rect>
        11 0 3 7</rect></_>
    <_>
      <rect>
        11 4 1 7</rect></_>
    <_>
      <rect>
        11 11 1 2</rect></_>
    <_>
      <rect>
        11 13 1 3</rect></_>
    <_>
      <rect>
        11 13 2 3</rect></_>
    <_>
      <rect>
        11 15 3 4</rect></_>
    <_>
      <rect>
        11 16 1 2</rect></_>
    <_>
      <rect>
        11 17 1 2</rect></_>
    <_>
      <rect>
        11 24 3 4</rect></_>
    <_>
      <rect>
        11 28 1 2</rect></_>
    <_>
      <rect>
        11 31 2 1</rect></_>
    <_>
      <rect>
        11 32 2 1</rect></_>
    <_>
      <rect>
        11 34 3 1</rect></_>
    <_>
      <rect>
        11 35 3 1</rect></_>
    <_>
      <rect>
        11 37 3 1</rect></_>
    <_>
      <rect>
        12 0 1 2</rect></_>
    <_>
      <rect>
        12 12 1 2</rect></_>
    <_>
      <rect>
        12 13 1 3</rect></_>
    <_>
      <rect>
        12 15 1 2</rect></_>
    <_>
      <rect>
        12 16 2 4</rect></_>
    <_>
      <rect>
        12 17 1 2</rect></_>
    <_>
      <rect>
        12 17 2 4</rect></_>
    <_>
      <rect>
        12 24 1 3</rect></_>
    <_>
      <rect>
        12 32 2 2</rect></_>
    <_>
      <rect>
        12 34 2 1</rect></_>
    <_>
      <rect>
        12 35 1 1</rect></_>
    <_>
      <rect>
        12 36 1 1</rect></_>
    <_>
      <rect>
        12 37 1 1</rect></_>
    <_>
      <rect>
        13 3 2 9</rect></_>
    <_>
      <rect>
        13 8 2 10</rect></_>
    <_>
      <rect>
        13 16 1 2</rect></_>
    <_>
      <rect>
        13 18 1 1</rect></_>
    <_>
      <rect>
        13 19 2 4</rect></_>
    <_>
      <rect>
        13 20 2 3</rect></_>
    <_>
      <rect>
        13 21 2 5</rect></_>
    <_>
      <rect>
        13 23 2 3</rect></_>
    <_>
      <rect>
        14 10 2 8</rect></_>
    <_>
      <rect>
        14 12 2 9</rect></_>
    <_>
      <rect>
        14 15 1 4</rect></_>
    <_>
      <rect>
        14 27 2 4</rect></_>
    <_>
      <rect>
        14 33 2 2</rect></_>
    <_>
      <rect>
        14 35 2 1</rect></_>
    <_>
      <rect>
        14 36 2 1</rect></_>
    <_>
      <rect>
        14 37 2 1</rect></_>
    <_>
      <rect>
        15 35 1 1</rect></_>
    <_>
      <rect>
        16 12 1 4</rect></_>
    <_>
      <rect>
        17 0 1 13</rect></_>
    <_>
      <rect>
        17 31 1 2</rect></_>
    <_>
      <rect>
        17 36 1 1</rect></_></features></cascade>
</opencv_storage>
