<?xml version="1.0"?>
<opencv_storage>
<cascade>
  <stageType>BOOST</stageType>
  <featureType>LBP</featureType>
  <height>32</height>
  <width>16</width>
  <stageParams>
    <boostType>GAB</boostType>
    <minHitRate>9.4999998807907104e-01</minHitRate>
    <maxFalseAlarm>5.0000000000000000e-01</maxFalseAlarm>
    <weightTrimRate>9.4999998807907104e-01</weightTrimRate>
    <maxDepth>1</maxDepth>
    <maxWeakCount>100</maxWeakCount></stageParams>
  <featureParams>
    <maxCatCount>256</maxCatCount>
    <featSize>1</featSize></featureParams>
  <stageNum>8</stageNum>
  <stages>
    <!-- stage 0 -->
    <_>
      <maxWeakCount>2</maxWeakCount>
      <stageThreshold>-1.9492331147193909e-01</stageThreshold>
      <weakClassifiers>
        <_>
          <internalNodes>
            0 -1 0 -1064578597 -251588479 268501011 -787365853 176390379
            -1459486712 -1467923573 -70261861</internalNodes>
          <leafValues>
            -9.8792755603790283e-01 7.8181821107864380e-01</leafValues></_>
        <_>
          <internalNodes>
            0 -1 1 -208671989 -1055195133 1 -519847935 16826378
            -2013233024 1073840267 -544226341</internalNodes>
          <leafValues>
            -9.7674149274826050e-01 8.3073270320892334e-01</leafValues></_></weakClassifiers></_>
    <!-- stage 1 -->
    <_>
      <maxWeakCount>2</maxWeakCount>
      <stageThreshold>-3.2585987448692322e-01</stageThreshold>
      <weakClassifiers>
        <_>
          <internalNodes>
            0 -1 7 -648807425 -112148399 285279363 -644693821
            -1878031670 -662142975 -394100085 -216280373</internalNodes>
          <leafValues>
            -9.6047431230545044e-01 8.2608693838119507e-01</leafValues></_>
        <_>
          <internalNodes>
            0 -1 8 -136588337 -79511421 131073 -754724221 -737557989
            -2147287039 -1073577846 -1345592629</internalNodes>
          <leafValues>
            -1. 6.3461446762084961e-01</leafValues></_></weakClassifiers></_>
    <!-- stage 2 -->
    <_>
      <maxWeakCount>1</maxWeakCount>
      <stageThreshold>6.1290323734283447e-01</stageThreshold>
      <weakClassifiers>
        <_>
          <internalNodes>
            0 -1 2 -204015617 -212631021 -1073643485 -250657577
            -643514357 -2147282869 -1065106813 -2353</internalNodes>
          <leafValues>
            -9.9183672666549683e-01 6.1290323734283447e-01</leafValues></_></weakClassifiers></_>
    <!-- stage 3 -->
    <_>
      <maxWeakCount>2</maxWeakCount>
      <stageThreshold>-2.3197545111179352e-01</stageThreshold>
      <weakClassifiers>
        <_>
          <internalNodes>
            0 -1 5 -580911649 -969494055 -644562671 -358113161
            -1039818513 -3811141 -774920817 -1577473</internalNodes>
          <leafValues>
            -9.8785424232482910e-01 6.8965518474578857e-01</leafValues></_>
        <_>
          <internalNodes>
            0 -1 6 -741081153 -862492201 -1956716209 -523058593
            -66991111 -142376831 -14456065 -4461749</internalNodes>
          <leafValues>
            -9.9490112066268921e-01 7.5587880611419678e-01</leafValues></_></weakClassifiers></_>
    <!-- stage 4 -->
    <_>
      <maxWeakCount>2</maxWeakCount>
      <stageThreshold>-2.6533555984497070e-01</stageThreshold>
      <weakClassifiers>
        <_>
          <internalNodes>
            0 -1 3 -558378017 -1121211431 -1071267817 -1256339131
            -2105948709 -90967811 -368074077 -6291537</internalNodes>
          <leafValues>
            -9.7991967201232910e-01 7.4074071645736694e-01</leafValues></_>
        <_>
          <internalNodes>
            0 -1 10 -673710145 1767764319 1359438165 -907556545
            -397554245 -1291704421 -482249825 -285213713</internalNodes>
          <leafValues>
            -9.8054063320159912e-01 7.1458411216735840e-01</leafValues></_></weakClassifiers></_>
    <!-- stage 5 -->
    <_>
      <maxWeakCount>1</maxWeakCount>
      <stageThreshold>5.3846156597137451e-01</stageThreshold>
      <weakClassifiers>
        <_>
          <internalNodes>
            0 -1 11 -608177665 -2057329385 -2096519017 -1884056775
            -771514473 -31993691 -1198788453 -789</internalNodes>
          <leafValues>
            -9.9178642034530640e-01 5.3846156597137451e-01</leafValues></_></weakClassifiers></_>
    <!-- stage 6 -->
    <_>
      <maxWeakCount>2</maxWeakCount>
      <stageThreshold>-4.2168587446212769e-01</stageThreshold>
      <weakClassifiers>
        <_>
          <internalNodes>
            0 -1 12 -205522945 -746008105 -2128404432 -5586856
            -599530513 -1176910526 -1017387310 -16847201</internalNodes>
          <leafValues>
            -9.6767675876617432e-01 5.4385966062545776e-01</leafValues></_>
        <_>
          <internalNodes>
            0 -1 4 -681748545 -401226269 2098061637 -276428587
            -399799361 -105281112 -37057889 -2363409</internalNodes>
          <leafValues>
            -9.6554553508758545e-01 6.6292381286621094e-01</leafValues></_></weakClassifiers></_>
    <!-- stage 7 -->
    <_>
      <maxWeakCount>2</maxWeakCount>
      <stageThreshold>-5.1588207483291626e-01</stageThreshold>
      <weakClassifiers>
        <_>
          <internalNodes>
            0 -1 13 -245375521 -217739211 288977869 -1316929273
            -1576087157 -1022647456 -659970834 -273944881</internalNodes>
          <leafValues>
            -9.7946614027023315e-01 4.4615384936332703e-01</leafValues></_>
        <_>
          <internalNodes>
            0 -1 9 -680142337 1972474045 -1861647975 -1790984163
            -1827146053 -528443328 -1408141682 -269488673</internalNodes>
          <leafValues>
            -9.6203595399856567e-01 5.7624721527099609e-01</leafValues></_></weakClassifiers></_></stages>
  <features>
    <_>
      <rect>
        4 15 2 2</rect></_>
    <_>
      <rect>
        5 1 3 8</rect></_>
    <_>
      <rect>
        5 13 1 4</rect></_>
    <_>
      <rect>
        5 22 1 3</rect></_>
    <_>
      <rect>
        5 23 1 1</rect></_>
    <_>
      <rect>
        5 24 1 1</rect></_>
    <_>
      <rect>
        6 18 1 1</rect></_>
    <_>
      <rect>
        6 18 1 2</rect></_>
    <_>
      <rect>
        6 19 1 4</rect></_>
    <_>
      <rect>
        6 19 3 4</rect></_>
    <_>
      <rect>
        6 21 1 2</rect></_>
    <_>
      <rect>
        6 24 1 2</rect></_>
    <_>
      <rect>
        7 6 1 3</rect></_>
    <_>
      <rect>
        7 21 2 3</rect></_></features></cascade>
</opencv_storage>
