<?xml version="1.0"?>
<opencv_storage>
<cascade>
  <stageType>BOOST</stageType>
  <featureType>LBP</featureType>
  <height>32</height>
  <width>16</width>
  <stageParams>
    <boostType>GAB</boostType>
    <minHitRate>9.9500000476837158e-01</minHitRate>
    <maxFalseAlarm>2.0000000298023224e-01</maxFalseAlarm>
    <weightTrimRate>9.4999998807907104e-01</weightTrimRate>
    <maxDepth>1</maxDepth>
    <maxWeakCount>100</maxWeakCount></stageParams>
  <featureParams>
    <maxCatCount>256</maxCatCount>
    <featSize>1</featSize></featureParams>
  <stageNum>10</stageNum>
  <stages>
    <!-- stage 0 -->
    <_>
      <maxWeakCount>4</maxWeakCount>
      <stageThreshold>-5.9019017219543457e-01</stageThreshold>
      <weakClassifiers>
        <_>
          <internalNodes>
            0 -1 33 -1050689 -141307833 -939278283 -179580657 437078049
            -1126449150 84619275 -5244609</internalNodes>
          <leafValues>
            -9.4878047704696655e-01 5.6779658794403076e-01</leafValues></_>
        <_>
          <internalNodes>
            0 -1 11 -74450958 -7089962 -1870622715 -665664653 -939272031
            -623344616 -934559605 -1</internalNodes>
          <leafValues>
            -9.3820393085479736e-01 5.5862271785736084e-01</leafValues></_>
        <_>
          <internalNodes>
            0 -1 9 -277101310 -515653365 50565585 -779320025 -1026565733
            -1037596664 -284769569 -35783681</internalNodes>
          <leafValues>
            -9.2609900236129761e-01 6.5393370389938354e-01</leafValues></_>
        <_>
          <internalNodes>
            0 -1 38 -646188105 -46149601 -1002221500 -620500515
            -523587013 -894705527 -896654752 -287311843</internalNodes>
          <leafValues>
            -8.5396611690521240e-01 7.4790966510772705e-01</leafValues></_></weakClassifiers></_>
    <!-- stage 1 -->
    <_>
      <maxWeakCount>4</maxWeakCount>
      <stageThreshold>-7.2976142168045044e-01</stageThreshold>
      <weakClassifiers>
        <_>
          <internalNodes>
            0 -1 0 -280501553 -1993113389 -788330735 -184167229
            -1063395169 -889059327 -785719909 -9440517</internalNodes>
          <leafValues>
            -8.8617885112762451e-01 6.1025643348693848e-01</leafValues></_>
        <_>
          <internalNodes>
            0 -1 1 -1067719441 743522503 -788446895 -1826930365
            -754835317 806551584 -1834839845 -593757749</internalNodes>
          <leafValues>
            -8.8449645042419434e-01 4.5299428701400757e-01</leafValues></_>
        <_>
          <internalNodes>
            0 -1 4 -402721297 69960195 -788446968 -1927839349
            -1937342261 -889995128 -805199679 -941622793</internalNodes>
          <leafValues>
            -8.9486950635910034e-01 5.2113234996795654e-01</leafValues></_>
        <_>
          <internalNodes>
            0 -1 25 -1411947605 -750632893 199043 -872283871 205735
            -2004189053 67113110 -287311137</internalNodes>
          <leafValues>
            -8.0557471513748169e-01 5.9829264879226685e-01</leafValues></_></weakClassifiers></_>
    <!-- stage 2 -->
    <_>
      <maxWeakCount>3</maxWeakCount>
      <stageThreshold>-3.0718913674354553e-01</stageThreshold>
      <weakClassifiers>
        <_>
          <internalNodes>
            0 -1 2 -683937809 -176729383 -251584003 -577158669
            -606880257 -1166311183 -637344033 -66405</internalNodes>
          <leafValues>
            -8.6778843402862549e-01 3.4821429848670959e-01</leafValues></_>
        <_>
          <internalNodes>
            0 -1 5 -161548298 -106163241 -653054518 2140967259
            -601120041 -1459535861 -491079237 -20990561</internalNodes>
          <leafValues>
            -9.5052003860473633e-01 3.0078554153442383e-01</leafValues></_>
        <_>
          <internalNodes>
            0 -1 10 -201326674 -1010305705 604187435 -381446525
            -388927029 -122256361 1502324667 2138831855</internalNodes>
          <leafValues>
            -9.5618897676467896e-01 3.0740118026733398e-01</leafValues></_></weakClassifiers></_>
    <!-- stage 3 -->
    <_>
      <maxWeakCount>4</maxWeakCount>
      <stageThreshold>-7.4456334114074707e-01</stageThreshold>
      <weakClassifiers>
        <_>
          <internalNodes>
            0 -1 39 -167772417 -1849439761 1514923759 -505838370
            -1086427585 -2004836227 -1361351783 -1048945</internalNodes>
          <leafValues>
            -8.5596221685409546e-01 3.8755980134010315e-01</leafValues></_>
        <_>
          <internalNodes>
            0 -1 29 -684369921 -1176658849 -913862381 -416802753
            -645424587 -737697379 -209329931 -420151468</internalNodes>
          <leafValues>
            -9.2350995540618896e-01 3.7125942111015320e-01</leafValues></_>
        <_>
          <internalNodes>
            0 -1 16 -2017529993 -349841921 1054024493 -1536639025
            -385126065 -525897644 1780312931 -285282306</internalNodes>
          <leafValues>
            -7.6051771640777588e-01 5.3231877088546753e-01</leafValues></_>
        <_>
          <internalNodes>
            0 -1 12 1566533551 -1077020439 1426711213 -559426615
            -1584420353 -139351895 -595134037 -676341345</internalNodes>
          <leafValues>
            -7.9217934608459473e-01 5.7304441928863525e-01</leafValues></_></weakClassifiers></_>
    <!-- stage 4 -->
    <_>
      <maxWeakCount>5</maxWeakCount>
      <stageThreshold>-5.6452739238739014e-01</stageThreshold>
      <weakClassifiers>
        <_>
          <internalNodes>
            0 -1 35 754857943 -39915157 -1053321769 -1311972629
            1495366655 -385236992 -1131461153 -1074794789</internalNodes>
          <leafValues>
            -8.9972144365310669e-01 5.9171598404645920e-03</leafValues></_>
        <_>
          <internalNodes>
            0 -1 18 843074933 389043261 -1622549121 -50196141 -767222851
            -1197991509 -83351067 -87290580</internalNodes>
          <leafValues>
            -7.7186226844787598e-01 3.9445674419403076e-01</leafValues></_>
        <_>
          <internalNodes>
            0 -1 27 -303044609 -1546305249 -632180100 -1361079100
            -348960395 -83705439 -594576858 -386531468</internalNodes>
          <leafValues>
            -7.8205710649490356e-01 4.7362333536148071e-01</leafValues></_>
        <_>
          <internalNodes>
            0 -1 37 -1684275659 -652656487 1090641386 -752384361
            -1398555663 -743708006 -1432403992 -355467289</internalNodes>
          <leafValues>
            -6.6520833969116211e-01 5.9465819597244263e-01</leafValues></_>
        <_>
          <internalNodes>
            0 -1 23 213690751 741270096 -2130488621 -1906913185 15925373
            -74776568 -2146755805 -1074905772</internalNodes>
          <leafValues>
            -7.7331626415252686e-01 5.2246367931365967e-01</leafValues></_></weakClassifiers></_>
    <!-- stage 5 -->
    <_>
      <maxWeakCount>5</maxWeakCount>
      <stageThreshold>-5.5491578578948975e-01</stageThreshold>
      <weakClassifiers>
        <_>
          <internalNodes>
            0 -1 14 1395782655 2069084549 -1790963365 -1794112240
            -1560117011 -1081868125 -351741701 -1079307832</internalNodes>
          <leafValues>
            -7.8506785631179810e-01 2.9069766402244568e-01</leafValues></_>
        <_>
          <internalNodes>
            0 -1 15 -42107611 -254684731 -626544145 -590901054
            -1308066977 -2139059824 -1065307303 -386803493</internalNodes>
          <leafValues>
            -8.0392044782638550e-01 3.5285180807113647e-01</leafValues></_>
        <_>
          <internalNodes>
            0 -1 31 2131858430 -1512187629 1367900618 -1402232565
            403317038 -1195261925 -68196181 2129525511</internalNodes>
          <leafValues>
            -7.8800857067108154e-01 4.2060151696205139e-01</leafValues></_>
        <_>
          <internalNodes>
            0 -1 34 -721944580 -1854436596 -2142076539 -325463933
            -1676715917 -939474514 439294878 -1295256630</internalNodes>
          <leafValues>
            -7.7252686023712158e-01 4.5042365789413452e-01</leafValues></_>
        <_>
          <internalNodes>
            0 -1 41 785389375 -1744120379 -1676556073 -1677274738
            -1029672796 1300365321 545991390 -1731460642</internalNodes>
          <leafValues>
            -8.4653991460800171e-01 4.4906327128410339e-01</leafValues></_></weakClassifiers></_>
    <!-- stage 6 -->
    <_>
      <maxWeakCount>5</maxWeakCount>
      <stageThreshold>-7.2603625059127808e-01</stageThreshold>
      <weakClassifiers>
        <_>
          <internalNodes>
            0 -1 26 -671090689 -716254949 294265093 -11612158 53183113
            1109950977 -520034231 -74599913</internalNodes>
          <leafValues>
            -7.9740869998931885e-01 1.5942029654979706e-01</leafValues></_>
        <_>
          <internalNodes>
            0 -1 7 -103287818 -652639929 -909650998 -951088674
            -1862088197 -1870593664 -802960993 1263768546</internalNodes>
          <leafValues>
            -8.8099151849746704e-01 2.6467913389205933e-01</leafValues></_>
        <_>
          <internalNodes>
            0 -1 40 -405278393 -929976044 340971556 -358080115
            1458305145 -1568652726 -892735811 -1368589637</internalNodes>
          <leafValues>
            -7.1426081657409668e-01 4.2983564734458923e-01</leafValues></_>
        <_>
          <internalNodes>
            0 -1 3 416216313 214950018 1140872214 -506236782 -141650289
            -485781310 -818702334 -859331959</internalNodes>
          <leafValues>
            -8.3139610290527344e-01 3.8272643089294434e-01</leafValues></_>
        <_>
          <internalNodes>
            0 -1 19 -926688769 398708865 1367572935 558700802 -398278583
            -2113929215 -2000092530 670658324</internalNodes>
          <leafValues>
            -8.1702709197998047e-01 4.3870639801025391e-01</leafValues></_></weakClassifiers></_>
    <!-- stage 7 -->
    <_>
      <maxWeakCount>5</maxWeakCount>
      <stageThreshold>-7.7966219186782837e-01</stageThreshold>
      <weakClassifiers>
        <_>
          <internalNodes>
            0 -1 24 1414289885 -1726625387 -1056845357 -607465308
            956395645 -71663454 -2102884167 -1364057995</internalNodes>
          <leafValues>
            -8.8522237539291382e-01 -7.5208917260169983e-02</leafValues></_>
        <_>
          <internalNodes>
            0 -1 43 -574282062 -616202232 1363170547 1074741263
            -917876412 -656012661 -1147319204 -1074816053</internalNodes>
          <leafValues>
            -8.1166952848434448e-01 3.1520172953605652e-01</leafValues></_>
        <_>
          <internalNodes>
            0 -1 17 1528387559 -1576654142 -800489330 -1359231546
            -1475845789 -786234747 -644695501 -473961697</internalNodes>
          <leafValues>
            -7.4827164411544800e-01 4.3289232254028320e-01</leafValues></_>
        <_>
          <internalNodes>
            0 -1 42 -2037375285 -1668349235 -1457437921 -410940403
            413290189 -1484554031 195812779 1206049716</internalNodes>
          <leafValues>
            -6.5764570236206055e-01 5.2713084220886230e-01</leafValues></_>
        <_>
          <internalNodes>
            0 -1 28 1342763871 1157693505 285692255 -553463521
            1082851361 -1875689208 1241759916 -822314448</internalNodes>
          <leafValues>
            -7.9490160942077637e-01 4.8086982965469360e-01</leafValues></_></weakClassifiers></_>
    <!-- stage 8 -->
    <_>
      <maxWeakCount>7</maxWeakCount>
      <stageThreshold>-6.2899982929229736e-01</stageThreshold>
      <weakClassifiers>
        <_>
          <internalNodes>
            0 -1 13 -243272705 -271513149 -771743458 -173038991
            318947337 -267976638 -1844866749 -136351221</internalNodes>
          <leafValues>
            -7.6259797811508179e-01 2.2699385881423950e-01</leafValues></_>
        <_>
          <internalNodes>
            0 -1 36 2005810929 -267694061 1253899 -1760755705
            -1047805263 -1048444670 -745912133 -265633702</internalNodes>
          <leafValues>
            -7.5832349061965942e-01 3.4041997790336609e-01</leafValues></_>
        <_>
          <internalNodes>
            0 -1 44 -1785409729 -1520729673 -1610120709 -1407713016
            -779681519 269045913 -2021451459 729022043</internalNodes>
          <leafValues>
            -7.3802316188812256e-01 3.9736494421958923e-01</leafValues></_>
        <_>
          <internalNodes>
            0 -1 8 -1995767380 1241550872 -920841962 -2061888268
            34671595 732578227 196364879 -842017620</internalNodes>
          <leafValues>
            -8.8644301891326904e-01 3.3748170733451843e-01</leafValues></_>
        <_>
          <internalNodes>
            0 -1 47 -1179989608 -754379950 100925698 2034962432
            -1593671172 -1525677661 -334708599 -22935454</internalNodes>
          <leafValues>
            -5.6768208742141724e-01 6.1574548482894897e-01</leafValues></_>
        <_>
          <internalNodes>
            0 -1 32 -1395316681 139624663 16815237 423744276 1610612765
            25165848 -1878971765 -1189756021</internalNodes>
          <leafValues>
            -8.3455181121826172e-01 4.3859156966209412e-01</leafValues></_>
        <_>
          <internalNodes>
            0 -1 6 2113683429 -37847075 -1342177289 2078261244
            1073610751 -1050689 -16877700 -1116736274</internalNodes>
          <leafValues>
            -5.7824510335922241e-01 6.7930620908737183e-01</leafValues></_></weakClassifiers></_>
    <!-- stage 9 -->
    <_>
      <maxWeakCount>6</maxWeakCount>
      <stageThreshold>-1.0439461469650269e+00</stageThreshold>
      <weakClassifiers>
        <_>
          <internalNodes>
            0 -1 22 1347634303 -1996067353 -2147331942 -1390553727
            1294147720 177195021 -1035269398 -1349541121</internalNodes>
          <leafValues>
            -8.5379308462142944e-01 -7.5528703629970551e-02</leafValues></_>
        <_>
          <internalNodes>
            0 -1 21 1623332695 -1325360936 319848659 -150974079
            1577218849 1411612673 -779501532 -73523166</internalNodes>
          <leafValues>
            -8.1222534179687500e-01 2.7801218628883362e-01</leafValues></_>
        <_>
          <internalNodes>
            0 -1 20 -210502276 -1794997878 -2147271762 -1066675965
            671713973 -251658109 -2012126807 -1567932021</internalNodes>
          <leafValues>
            -9.0823101997375488e-01 3.1137725710868835e-01</leafValues></_>
        <_>
          <internalNodes>
            0 -1 45 -1726343692 1884504369 -1736441806 -1123200945
            -2146951008 -660766592 -804190077 -102704768</internalNodes>
          <leafValues>
            -6.4503091573715210e-01 5.3027391433715820e-01</leafValues></_>
        <_>
          <internalNodes>
            0 -1 30 -150479947 -2012851957 272695299 -1605959531
            1108017179 -2013200384 1501774117 -184549819</internalNodes>
          <leafValues>
            -6.1167663335800171e-01 5.8616828918457031e-01</leafValues></_>
        <_>
          <internalNodes>
            0 -1 46 927994771 -780107239 1073999936 -985034167
            -2147358583 -1610407795 25198845 600580288</internalNodes>
          <leafValues>
            -7.6933234930038452e-01 4.7716504335403442e-01</leafValues></_></weakClassifiers></_></stages>
  <features>
    <_>
      <rect>
        0 2 4 8</rect></_>
    <_>
      <rect>
        0 3 4 2</rect></_>
    <_>
      <rect>
        0 4 5 2</rect></_>
    <_>
      <rect>
        0 5 2 8</rect></_>
    <_>
      <rect>
        0 8 3 6</rect></_>
    <_>
      <rect>
        0 10 5 6</rect></_>
    <_>
      <rect>
        0 15 1 1</rect></_>
    <_>
      <rect>
        0 17 5 5</rect></_>
    <_>
      <rect>
        0 25 3 2</rect></_>
    <_>
      <rect>
        1 0 5 7</rect></_>
    <_>
      <rect>
        1 5 5 6</rect></_>
    <_>
      <rect>
        1 10 5 7</rect></_>
    <_>
      <rect>
        2 3 4 2</rect></_>
    <_>
      <rect>
        2 4 2 8</rect></_>
    <_>
      <rect>
        2 29 4 1</rect></_>
    <_>
      <rect>
        4 1 4 8</rect></_>
    <_>
      <rect>
        4 5 3 7</rect></_>
    <_>
      <rect>
        4 25 1 1</rect></_>
    <_>
      <rect>
        4 29 2 1</rect></_>
    <_>
      <rect>
        5 10 2 3</rect></_>
    <_>
      <rect>
        5 13 3 6</rect></_>
    <_>
      <rect>
        5 16 1 2</rect></_>
    <_>
      <rect>
        5 25 3 2</rect></_>
    <_>
      <rect>
        5 27 2 1</rect></_>
    <_>
      <rect>
        5 29 2 1</rect></_>
    <_>
      <rect>
        6 3 2 8</rect></_>
    <_>
      <rect>
        6 5 1 9</rect></_>
    <_>
      <rect>
        6 11 1 2</rect></_>
    <_>
      <rect>
        6 19 2 3</rect></_>
    <_>
      <rect>
        6 20 1 2</rect></_>
    <_>
      <rect>
        6 23 1 2</rect></_>
    <_>
      <rect>
        6 24 2 2</rect></_>
    <_>
      <rect>
        7 4 1 2</rect></_>
    <_>
      <rect>
        7 6 3 5</rect></_>
    <_>
      <rect>
        7 7 2 6</rect></_>
    <_>
      <rect>
        7 15 1 2</rect></_>
    <_>
      <rect>
        7 16 1 3</rect></_>
    <_>
      <rect>
        7 19 3 2</rect></_>
    <_>
      <rect>
        7 20 3 3</rect></_>
    <_>
      <rect>
        8 6 2 6</rect></_>
    <_>
      <rect>
        8 8 1 1</rect></_>
    <_>
      <rect>
        9 14 1 2</rect></_>
    <_>
      <rect>
        10 5 2 2</rect></_>
    <_>
      <rect>
        10 23 2 3</rect></_>
    <_>
      <rect>
        10 26 1 1</rect></_>
    <_>
      <rect>
        13 7 1 1</rect></_>
    <_>
      <rect>
        13 13 1 3</rect></_>
    <_>
      <rect>
        13 29 1 1</rect></_></features></cascade>
</opencv_storage>
