<?xml version="1.0"?>
<opencv_storage>
<cascade>
  <stageType>BOOST</stageType>
  <featureType>LBP</featureType>
  <height>32</height>
  <width>16</width>
  <stageParams>
    <boostType>GAB</boostType>
    <minHitRate>9.4999998807907104e-01</minHitRate>
    <maxFalseAlarm>3.0000001192092896e-01</maxFalseAlarm>
    <weightTrimRate>9.4999998807907104e-01</weightTrimRate>
    <maxDepth>1</maxDepth>
    <maxWeakCount>100</maxWeakCount></stageParams>
  <featureParams>
    <maxCatCount>256</maxCatCount>
    <featSize>1</featSize></featureParams>
  <stageNum>13</stageNum>
  <stages>
    <!-- stage 0 -->
    <_>
      <maxWeakCount>2</maxWeakCount>
      <stageThreshold>-1.9492331147193909e-01</stageThreshold>
      <weakClassifiers>
        <_>
          <internalNodes>
            0 -1 3 -1064578597 -251588479 268501011 -787365853 176390379
            -1459486712 -1467923573 -70261861</internalNodes>
          <leafValues>
            -9.8792755603790283e-01 7.8181821107864380e-01</leafValues></_>
        <_>
          <internalNodes>
            0 -1 4 -208671989 -1055195133 1 -519847935 16826378
            -2013233024 1073840267 -544226341</internalNodes>
          <leafValues>
            -9.7674149274826050e-01 8.3073270320892334e-01</leafValues></_></weakClassifiers></_>
    <!-- stage 1 -->
    <_>
      <maxWeakCount>2</maxWeakCount>
      <stageThreshold>-3.2585987448692322e-01</stageThreshold>
      <weakClassifiers>
        <_>
          <internalNodes>
            0 -1 13 -648807425 -112148399 285279363 -644693821
            -1878031670 -662142975 -394100085 -216280373</internalNodes>
          <leafValues>
            -9.6047431230545044e-01 8.2608693838119507e-01</leafValues></_>
        <_>
          <internalNodes>
            0 -1 14 -136588337 -79511421 131073 -754724221 -737557989
            -2147287039 -1073577846 -1345592629</internalNodes>
          <leafValues>
            -1. 6.3461446762084961e-01</leafValues></_></weakClassifiers></_>
    <!-- stage 2 -->
    <_>
      <maxWeakCount>1</maxWeakCount>
      <stageThreshold>6.1290323734283447e-01</stageThreshold>
      <weakClassifiers>
        <_>
          <internalNodes>
            0 -1 6 -204015617 -212631021 -1073643485 -250657577
            -643514357 -2147282869 -1065106813 -2353</internalNodes>
          <leafValues>
            -9.9183672666549683e-01 6.1290323734283447e-01</leafValues></_></weakClassifiers></_>
    <!-- stage 3 -->
    <_>
      <maxWeakCount>2</maxWeakCount>
      <stageThreshold>-2.3197545111179352e-01</stageThreshold>
      <weakClassifiers>
        <_>
          <internalNodes>
            0 -1 10 -580911649 -969494055 -644562671 -358113161
            -1039818513 -3811141 -774920817 -1577473</internalNodes>
          <leafValues>
            -9.8785424232482910e-01 6.8965518474578857e-01</leafValues></_>
        <_>
          <internalNodes>
            0 -1 12 -741081153 -862492201 -1956716209 -523058593
            -66991111 -142376831 -14456065 -4461749</internalNodes>
          <leafValues>
            -9.9490112066268921e-01 7.5587880611419678e-01</leafValues></_></weakClassifiers></_>
    <!-- stage 4 -->
    <_>
      <maxWeakCount>2</maxWeakCount>
      <stageThreshold>-2.6533555984497070e-01</stageThreshold>
      <weakClassifiers>
        <_>
          <internalNodes>
            0 -1 8 -558378017 -1121211431 -1071267817 -1256339131
            -2105948709 -90967811 -368074077 -6291537</internalNodes>
          <leafValues>
            -9.7991967201232910e-01 7.4074071645736694e-01</leafValues></_>
        <_>
          <internalNodes>
            0 -1 16 -673710145 1767764319 1359438165 -907556545
            -397554245 -1291704421 -482249825 -285213713</internalNodes>
          <leafValues>
            -9.8054063320159912e-01 7.1458411216735840e-01</leafValues></_></weakClassifiers></_>
    <!-- stage 5 -->
    <_>
      <maxWeakCount>1</maxWeakCount>
      <stageThreshold>5.3846156597137451e-01</stageThreshold>
      <weakClassifiers>
        <_>
          <internalNodes>
            0 -1 17 -608177665 -2057329385 -2096519017 -1884056775
            -771514473 -31993691 -1198788453 -789</internalNodes>
          <leafValues>
            -9.9178642034530640e-01 5.3846156597137451e-01</leafValues></_></weakClassifiers></_>
    <!-- stage 6 -->
    <_>
      <maxWeakCount>2</maxWeakCount>
      <stageThreshold>-4.2168587446212769e-01</stageThreshold>
      <weakClassifiers>
        <_>
          <internalNodes>
            0 -1 18 -205522945 -746008105 -2128404432 -5586856
            -599530513 -1176910526 -1017387310 -16847201</internalNodes>
          <leafValues>
            -9.6767675876617432e-01 5.4385966062545776e-01</leafValues></_>
        <_>
          <internalNodes>
            0 -1 9 -681748545 -401226269 2098061637 -276428587
            -399799361 -105281112 -37057889 -2363409</internalNodes>
          <leafValues>
            -9.6554553508758545e-01 6.6292381286621094e-01</leafValues></_></weakClassifiers></_>
    <!-- stage 7 -->
    <_>
      <maxWeakCount>2</maxWeakCount>
      <stageThreshold>-5.1588207483291626e-01</stageThreshold>
      <weakClassifiers>
        <_>
          <internalNodes>
            0 -1 21 -245375521 -217739211 288977869 -1316929273
            -1576087157 -1022647456 -659970834 -273944881</internalNodes>
          <leafValues>
            -9.7946614027023315e-01 4.4615384936332703e-01</leafValues></_>
        <_>
          <internalNodes>
            0 -1 15 -680142337 1972474045 -1861647975 -1790984163
            -1827146053 -528443328 -1408141682 -269488673</internalNodes>
          <leafValues>
            -9.6203595399856567e-01 5.7624721527099609e-01</leafValues></_></weakClassifiers></_>
    <!-- stage 8 -->
    <_>
      <maxWeakCount>2</maxWeakCount>
      <stageThreshold>-2.2779379785060883e-01</stageThreshold>
      <weakClassifiers>
        <_>
          <internalNodes>
            0 -1 5 -1071656105 -464014979 -1057897194 -175535161
            -1041778001 -926285815 -418342753 -102762101</internalNodes>
          <leafValues>
            -9.4488191604614258e-01 7.2727274894714355e-01</leafValues></_>
        <_>
          <internalNodes>
            0 -1 20 -266743313 -292338697 -935199221 -2032565729
            -2127979793 -1640588977 -1567500625 -6310237</internalNodes>
          <leafValues>
            -9.5194560289382935e-01 7.1708810329437256e-01</leafValues></_></weakClassifiers></_>
    <!-- stage 9 -->
    <_>
      <maxWeakCount>2</maxWeakCount>
      <stageThreshold>-4.2897891998291016e-01</stageThreshold>
      <weakClassifiers>
        <_>
          <internalNodes>
            0 -1 2 -572924929 -226455279 -804962294 -611655371
            -956198257 -159236025 -2004253809 -4205601</internalNodes>
          <leafValues>
            -9.6370965242385864e-01 5.3571426868438721e-01</leafValues></_>
        <_>
          <internalNodes>
            0 -1 23 -548548097 -204002667 -922119167 -530282360
            -2010844397 -1732128766 -469597658 -78910269</internalNodes>
          <leafValues>
            -9.6469318866729736e-01 5.6467366218566895e-01</leafValues></_></weakClassifiers></_>
    <!-- stage 10 -->
    <_>
      <maxWeakCount>2</maxWeakCount>
      <stageThreshold>-4.2397099733352661e-01</stageThreshold>
      <weakClassifiers>
        <_>
          <internalNodes>
            0 -1 19 -750266409 -800995307 31 -573193711 -803430389
            -1727971327 537453195 -1412562997</internalNodes>
          <leafValues>
            -9.5591181516647339e-01 5.4716980457305908e-01</leafValues></_>
        <_>
          <internalNodes>
            0 -1 11 -112995009 -1071861213 1090519312 -268394496
            1075953923 -1868521216 402882571 -6298761</internalNodes>
          <leafValues>
            -9.7114080190658569e-01 6.4239376783370972e-01</leafValues></_></weakClassifiers></_>
    <!-- stage 11 -->
    <_>
      <maxWeakCount>2</maxWeakCount>
      <stageThreshold>-4.7739621996879578e-01</stageThreshold>
      <weakClassifiers>
        <_>
          <internalNodes>
            0 -1 7 9900503 -782810864 1493238103 -1182723803 -1946123909
            -1449131899 1191215338 -56051282</internalNodes>
          <leafValues>
            -9.5959597826004028e-01 4.7368422150611877e-01</leafValues></_>
        <_>
          <internalNodes>
            0 -1 22 1398359039 -1185447917 -821812723 -1051229727
            1140883590 -2075803646 -887060274 -41253175</internalNodes>
          <leafValues>
            -9.5108044147491455e-01 6.1744761466979980e-01</leafValues></_></weakClassifiers></_>
    <!-- stage 12 -->
    <_>
      <maxWeakCount>2</maxWeakCount>
      <stageThreshold>-2.7483882382512093e-02</stageThreshold>
      <weakClassifiers>
        <_>
          <internalNodes>
            0 -1 0 20980003 807469072 268500993 -1728048895 -938999648
            -1879048192 2134041 -539307077</internalNodes>
          <leafValues>
            -9.5312500000000000e-01 1.</leafValues></_>
        <_>
          <internalNodes>
            0 -1 1 269977125 -1325301757 1073742865 -1056964576
            -511672311 1082132480 134250667 -75333299</internalNodes>
          <leafValues>
            -9.4009310007095337e-01 9.2564111948013306e-01</leafValues></_></weakClassifiers></_></stages>
  <features>
    <_>
      <rect>
        1 0 5 9</rect></_>
    <_>
      <rect>
        2 3 4 2</rect></_>
    <_>
      <rect>
        4 13 2 6</rect></_>
    <_>
      <rect>
        4 15 2 2</rect></_>
    <_>
      <rect>
        5 1 3 8</rect></_>
    <_>
      <rect>
        5 5 1 2</rect></_>
    <_>
      <rect>
        5 13 1 4</rect></_>
    <_>
      <rect>
        5 20 3 2</rect></_>
    <_>
      <rect>
        5 22 1 3</rect></_>
    <_>
      <rect>
        5 23 1 1</rect></_>
    <_>
      <rect>
        5 24 1 1</rect></_>
    <_>
      <rect>
        6 5 1 8</rect></_>
    <_>
      <rect>
        6 18 1 1</rect></_>
    <_>
      <rect>
        6 18 1 2</rect></_>
    <_>
      <rect>
        6 19 1 4</rect></_>
    <_>
      <rect>
        6 19 3 4</rect></_>
    <_>
      <rect>
        6 21 1 2</rect></_>
    <_>
      <rect>
        6 24 1 2</rect></_>
    <_>
      <rect>
        7 6 1 3</rect></_>
    <_>
      <rect>
        7 6 2 6</rect></_>
    <_>
      <rect>
        7 12 1 1</rect></_>
    <_>
      <rect>
        7 21 2 3</rect></_>
    <_>
      <rect>
        7 24 2 2</rect></_>
    <_>
      <rect>
        9 24 1 1</rect></_></features></cascade>
</opencv_storage>
