<?xml version="1.0"?>
<opencv_storage>
<cascade>
  <stageType>BOOST</stageType>
  <featureType>LBP</featureType>
  <height>32</height>
  <width>16</width>
  <stageParams>
    <boostType>GAB</boostType>
    <minHitRate>9.9500000476837158e-01</minHitRate>
    <maxFalseAlarm>2.0000000298023224e-01</maxFalseAlarm>
    <weightTrimRate>9.4999998807907104e-01</weightTrimRate>
    <maxDepth>1</maxDepth>
    <maxWeakCount>100</maxWeakCount></stageParams>
  <featureParams>
    <maxCatCount>256</maxCatCount>
    <featSize>1</featSize></featureParams>
  <stageNum>10</stageNum>
  <stages>
    <!-- stage 0 -->
    <_>
      <maxWeakCount>2</maxWeakCount>
      <stageThreshold>-3.6311593651771545e-01</stageThreshold>
      <weakClassifiers>
        <_>
          <internalNodes>
            0 -1 6 -278928401 -1071265533 1090620547 -941686525
            -535918165 -494174044 -1039285621 -67110945</internalNodes>
          <leafValues>
            -9.1578948497772217e-01 7.1028035879135132e-01</leafValues></_>
        <_>
          <internalNodes>
            0 -1 19 -572795940 -174862158 -1039937458 -766320637
            -926681039 -533168121 -1040031722 -10493953</internalNodes>
          <leafValues>
            -9.6851205825805664e-01 5.5267351865768433e-01</leafValues></_></weakClassifiers></_>
    <!-- stage 1 -->
    <_>
      <maxWeakCount>4</maxWeakCount>
      <stageThreshold>-6.9870579242706299e-01</stageThreshold>
      <weakClassifiers>
        <_>
          <internalNodes>
            0 -1 3 -104601137 -654094255 957374795 -577142419
            -1333601621 -123535231 -939340309 -3413265</internalNodes>
          <leafValues>
            -9.0307331085205078e-01 5.9641253948211670e-01</leafValues></_>
        <_>
          <internalNodes>
            0 -1 31 -105383505 -611321807 -805213798 -584392685
            269115453 -1240742358 201932843 -36701085</internalNodes>
          <leafValues>
            -9.0793949365615845e-01 5.0168204307556152e-01</leafValues></_>
        <_>
          <internalNodes>
            0 -1 1 1626530543 234995722 1661387014 -1794146099
            -1056210758 -963354470 -749675827 -808454153</internalNodes>
          <leafValues>
            -8.5482895374298096e-01 5.7891923189163208e-01</leafValues></_>
        <_>
          <internalNodes>
            0 -1 0 -912267314 -585318269 286331219 -1654700705
            -1350065989 -536092531 -1069352449 -134287617</internalNodes>
          <leafValues>
            -8.7271624803543091e-01 5.5751442909240723e-01</leafValues></_></weakClassifiers></_>
    <!-- stage 2 -->
    <_>
      <maxWeakCount>4</maxWeakCount>
      <stageThreshold>-5.4251229763031006e-01</stageThreshold>
      <weakClassifiers>
        <_>
          <internalNodes>
            0 -1 12 -2097233 -738729161 1103485597 -646848801 -673342501
            -393866425 -384575745 -16778257</internalNodes>
          <leafValues>
            -8.5219401121139526e-01 5.2709358930587769e-01</leafValues></_>
        <_>
          <internalNodes>
            0 -1 36 -1578209 -72920305 -1727532846 -738601793 -204735047
            -829781617 -885321468 -16847154</internalNodes>
          <leafValues>
            -8.3505398035049438e-01 5.7272452116012573e-01</leafValues></_>
        <_>
          <internalNodes>
            0 -1 8 -285234193 -1564949613 -843994673 -1143190699
            1763169263 1829350287 -265562129 -3146001</internalNodes>
          <leafValues>
            -8.3898967504501343e-01 6.0480797290802002e-01</leafValues></_>
        <_>
          <internalNodes>
            0 -1 2 -823170321 720625119 -112073889 -677936458 -254938113
            1653863400 -77906241 -536878085</internalNodes>
          <leafValues>
            -8.0431634187698364e-01 6.0443770885467529e-01</leafValues></_></weakClassifiers></_>
    <!-- stage 3 -->
    <_>
      <maxWeakCount>4</maxWeakCount>
      <stageThreshold>-8.0608117580413818e-01</stageThreshold>
      <weakClassifiers>
        <_>
          <internalNodes>
            0 -1 22 -704645313 -217341609 -1840914841 -85731846
            -1423229133 -985069048 -274728001 -67113217</internalNodes>
          <leafValues>
            -8.7176322937011719e-01 2.9457363486289978e-01</leafValues></_>
        <_>
          <internalNodes>
            0 -1 26 -212992033 -102917457 1142001683 -477601777
            -242749325 -1207220096 -1035347051 -420020252</internalNodes>
          <leafValues>
            -8.2663685083389282e-01 4.5768418908119202e-01</leafValues></_>
        <_>
          <internalNodes>
            0 -1 5 -578881585 782084399 -737045418 -1108892329
            -251541037 -407658093 -20331095 -687866905</internalNodes>
          <leafValues>
            -7.8821569681167603e-01 5.5134105682373047e-01</leafValues></_>
        <_>
          <internalNodes>
            0 -1 37 -709911555 -145554469 1393803370 -581746289
            -1439176391 -326270807 1003095112 -1358987585</internalNodes>
          <leafValues>
            -8.2535904645919800e-01 5.1502174139022827e-01</leafValues></_></weakClassifiers></_>
    <!-- stage 4 -->
    <_>
      <maxWeakCount>5</maxWeakCount>
      <stageThreshold>-6.4917069673538208e-01</stageThreshold>
      <weakClassifiers>
        <_>
          <internalNodes>
            0 -1 33 -234883585 -1819950825 -1602191049 -976240561
            -929011393 -368555987 285420479 -20191761</internalNodes>
          <leafValues>
            -8.5336536169052124e-01 3.3333334326744080e-01</leafValues></_>
        <_>
          <internalNodes>
            0 -1 35 618018135 -2040888425 -586955009 -1073811093
            -729323125 -1526626176 -1114697013 -1073865775</internalNodes>
          <leafValues>
            -9.0859895944595337e-01 2.8256380558013916e-01</leafValues></_>
        <_>
          <internalNodes>
            0 -1 30 -1573002 1369737471 268804690 -713113122 -875812320
            -2146860405 -74604052 -71566737</internalNodes>
          <leafValues>
            -8.8737279176712036e-01 3.2953122258186340e-01</leafValues></_>
        <_>
          <internalNodes>
            0 -1 40 -1838148227 -1856716323 -1718641153 -543571772
            -266787655 -637359879 1317719256 -1393770564</internalNodes>
          <leafValues>
            -6.6611331701278687e-01 5.6615096330642700e-01</leafValues></_>
        <_>
          <internalNodes>
            0 -1 11 1501017376 -179257167 318981087 1699967235
            -1342070277 -1331224560 293779601 -243028981</internalNodes>
          <leafValues>
            -9.2848575115203857e-01 4.6354925632476807e-01</leafValues></_></weakClassifiers></_>
    <!-- stage 5 -->
    <_>
      <maxWeakCount>6</maxWeakCount>
      <stageThreshold>-1.1048606634140015e+00</stageThreshold>
      <weakClassifiers>
        <_>
          <internalNodes>
            0 -1 7 -77988361 1494308183 -774730769 1910497537 -660803117
            -1190641408 -148835585 -7294619</internalNodes>
          <leafValues>
            -7.9229873418807983e-01 2.2641509771347046e-01</leafValues></_>
        <_>
          <internalNodes>
            0 -1 21 -218302499 -955781041 -1072475812 -607499846
            1246356649 -1056800637 -905453275 -6941922</internalNodes>
          <leafValues>
            -8.2566785812377930e-01 3.4713494777679443e-01</leafValues></_>
        <_>
          <internalNodes>
            0 -1 24 -488642561 -1446191641 -112998852 -1403023274
            -527742861 -89403263 -7509450 -320473244</internalNodes>
          <leafValues>
            -7.3394256830215454e-01 4.5076641440391541e-01</leafValues></_>
        <_>
          <internalNodes>
            0 -1 20 338718677 993022617 -250515681 -1090368679
            -1336716355 -1146576726 2075273385 -1075031764</internalNodes>
          <leafValues>
            -6.5589118003845215e-01 5.5360746383666992e-01</leafValues></_>
        <_>
          <internalNodes>
            0 -1 16 -455181340 1153688399 1627455881 -1521770168
            -788404061 -1868463992 -520089008 -537431121</internalNodes>
          <leafValues>
            -7.9958260059356689e-01 4.7031772136688232e-01</leafValues></_>
        <_>
          <internalNodes>
            0 -1 14 -821874810 84586954 18420144 -1357733542 -1064107125
            957368599 -2080239303 -304126539</internalNodes>
          <leafValues>
            -7.9559051990509033e-01 4.3447947502136230e-01</leafValues></_></weakClassifiers></_>
    <!-- stage 6 -->
    <_>
      <maxWeakCount>5</maxWeakCount>
      <stageThreshold>-7.9781132936477661e-01</stageThreshold>
      <weakClassifiers>
        <_>
          <internalNodes>
            0 -1 27 1901461399 824508613 1426936319 1363230741
            -1987407107 -1416765283 -1962285076 -22296653</internalNodes>
          <leafValues>
            -8.2478100061416626e-01 1.0370370000600815e-01</leafValues></_>
        <_>
          <internalNodes>
            0 -1 32 -682896588 -1028568704 270209466 1536819219
            -807638667 -75380671 -1205076740 -229442579</internalNodes>
          <leafValues>
            -8.9042651653289795e-01 2.3276296257972717e-01</leafValues></_>
        <_>
          <internalNodes>
            0 -1 25 605042021 -32312485 -989618089 -1156560879
            -775331545 -896804861 -2264735 -16880665</internalNodes>
          <leafValues>
            -8.9424633979797363e-01 2.7763107419013977e-01</leafValues></_>
        <_>
          <internalNodes>
            0 -1 29 1968935934 -2054072295 1099071624 -1931783865
            1246631981 -1719500733 -805105477 1016453479</internalNodes>
          <leafValues>
            -7.2524279356002808e-01 4.2919570207595825e-01</leafValues></_>
        <_>
          <internalNodes>
            0 -1 44 97137246 -1780542435 89131195 -83524284 -376272150
            1241516240 -1534415901 -1986196464</internalNodes>
          <leafValues>
            -6.8666630983352661e-01 5.1136219501495361e-01</leafValues></_></weakClassifiers></_>
    <!-- stage 7 -->
    <_>
      <maxWeakCount>5</maxWeakCount>
      <stageThreshold>-7.4545997381210327e-01</stageThreshold>
      <weakClassifiers>
        <_>
          <internalNodes>
            0 -1 23 -673189441 1440797143 -635886197 -996630069
            -934990961 -1459611319 955595631 -339738661</internalNodes>
          <leafValues>
            -8.2828283309936523e-01 9.0252704918384552e-02</leafValues></_>
        <_>
          <internalNodes>
            0 -1 9 -785917954 1402421529 -1592536628 -20073826
            -1340436293 -2143075960 1116994511 1732490214</internalNodes>
          <leafValues>
            -8.7813419103622437e-01 2.3048968613147736e-01</leafValues></_>
        <_>
          <internalNodes>
            0 -1 28 1405453815 -1567649389 1210782657 -941336105
            -218004657 -2061926263 -1901334031 -419677340</internalNodes>
          <leafValues>
            -8.6510282754898071e-01 3.0134236812591553e-01</leafValues></_>
        <_>
          <internalNodes>
            0 -1 39 -1051486321 295403584 -1874224757 -1823227497
            214575229 -243253052 -2011629764 -58459126</internalNodes>
          <leafValues>
            -7.6061004400253296e-01 4.0998405218124390e-01</leafValues></_>
        <_>
          <internalNodes>
            0 -1 4 1022832799 902497639 22188296 -47132526 1151509291
            -1693872103 -767448889 -1153143669</internalNodes>
          <leafValues>
            -6.0693466663360596e-01 5.0389009714126587e-01</leafValues></_></weakClassifiers></_>
    <!-- stage 8 -->
    <_>
      <maxWeakCount>5</maxWeakCount>
      <stageThreshold>-6.7499262094497681e-01</stageThreshold>
      <weakClassifiers>
        <_>
          <internalNodes>
            0 -1 18 -786957345 -394081913 -1039107519 -334916350
            2014412970 -1606385534 1345051335 2123841469</internalNodes>
          <leafValues>
            -8.3510637283325195e-01 -9.4637228175997734e-03</leafValues></_>
        <_>
          <internalNodes>
            0 -1 10 -1240796673 265209227 -2147286966 -1018470390
            17422559 453937288 -2013233144 786410378</internalNodes>
          <leafValues>
            -7.7131587266921997e-01 2.7570387721061707e-01</leafValues></_>
        <_>
          <internalNodes>
            0 -1 43 31065457 676537120 1367514402 -1322825704
            -1589208846 -124681078 437356682 -1385903624</internalNodes>
          <leafValues>
            -6.8954324722290039e-01 4.1839006543159485e-01</leafValues></_>
        <_>
          <internalNodes>
            0 -1 41 -965365386 -770310005 -1073208712 4358173 1247276
            -805239802 -687695912 -1371058626</internalNodes>
          <leafValues>
            -7.6212787628173828e-01 4.1906470060348511e-01</leafValues></_>
        <_>
          <internalNodes>
            0 -1 38 -1814756595 839419987 4243553 -1534721661 -536737403
            33619968 -2145320823 -214969557</internalNodes>
          <leafValues>
            -5.9749495983123779e-01 5.8520698547363281e-01</leafValues></_></weakClassifiers></_>
    <!-- stage 9 -->
    <_>
      <maxWeakCount>5</maxWeakCount>
      <stageThreshold>-8.6592143774032593e-01</stageThreshold>
      <weakClassifiers>
        <_>
          <internalNodes>
            0 -1 15 1938923511 1498484864 1090553181 -786427888
            1914745077 -1149239296 -1988042305 -1416310712</internalNodes>
          <leafValues>
            -8.0469715595245361e-01 7.6923079788684845e-02</leafValues></_>
        <_>
          <internalNodes>
            0 -1 17 -1371329757 -1018310585 -1068478441 -212298875
            -796061589 -2013233152 -535698295 -123937653</internalNodes>
          <leafValues>
            -8.3546239137649536e-01 2.7916815876960754e-01</leafValues></_>
        <_>
          <internalNodes>
            0 -1 13 1163521391 989925833 1963246765 -674148219
            -1605865286 842047684 -1341601555 -787886054</internalNodes>
          <leafValues>
            -8.2828456163406372e-01 3.4233766794204712e-01</leafValues></_>
        <_>
          <internalNodes>
            0 -1 42 -385213278 1896417299 973115421 -1795161773
            -1857349280 1319698441 -1987344360 -1143502693</internalNodes>
          <leafValues>
            -7.7354830503463745e-01 4.5332807302474976e-01</leafValues></_>
        <_>
          <internalNodes>
            0 -1 34 -74384387 -217902062 16781585 -234698734 -1006517600
            41001 -1492923773 1017588609</internalNodes>
          <leafValues>
            -8.4032255411148071e-01 3.7982022762298584e-01</leafValues></_></weakClassifiers></_></stages>
  <features>
    <_>
      <rect>
        0 1 5 6</rect></_>
    <_>
      <rect>
        0 2 3 8</rect></_>
    <_>
      <rect>
        0 3 4 2</rect></_>
    <_>
      <rect>
        0 3 5 2</rect></_>
    <_>
      <rect>
        0 5 2 4</rect></_>
    <_>
      <rect>
        0 6 3 7</rect></_>
    <_>
      <rect>
        0 7 4 6</rect></_>
    <_>
      <rect>
        0 9 5 4</rect></_>
    <_>
      <rect>
        0 13 4 3</rect></_>
    <_>
      <rect>
        0 17 5 5</rect></_>
    <_>
      <rect>
        0 21 2 3</rect></_>
    <_>
      <rect>
        1 0 5 5</rect></_>
    <_>
      <rect>
        1 2 5 3</rect></_>
    <_>
      <rect>
        2 3 4 2</rect></_>
    <_>
      <rect>
        2 25 2 2</rect></_>
    <_>
      <rect>
        2 29 4 1</rect></_>
    <_>
      <rect>
        3 10 2 5</rect></_>
    <_>
      <rect>
        4 0 3 9</rect></_>
    <_>
      <rect>
        4 6 2 7</rect></_>
    <_>
      <rect>
        4 11 4 7</rect></_>
    <_>
      <rect>
        4 29 2 1</rect></_>
    <_>
      <rect>
        5 11 1 6</rect></_>
    <_>
      <rect>
        6 2 3 8</rect></_>
    <_>
      <rect>
        6 5 2 7</rect></_>
    <_>
      <rect>
        6 11 1 2</rect></_>
    <_>
      <rect>
        6 16 1 2</rect></_>
    <_>
      <rect>
        6 20 1 2</rect></_>
    <_>
      <rect>
        6 20 3 2</rect></_>
    <_>
      <rect>
        6 21 1 2</rect></_>
    <_>
      <rect>
        6 24 2 2</rect></_>
    <_>
      <rect>
        7 3 3 9</rect></_>
    <_>
      <rect>
        7 5 3 6</rect></_>
    <_>
      <rect>
        7 7 2 2</rect></_>
    <_>
      <rect>
        7 7 2 6</rect></_>
    <_>
      <rect>
        7 10 1 6</rect></_>
    <_>
      <rect>
        7 15 1 2</rect></_>
    <_>
      <rect>
        7 20 3 2</rect></_>
    <_>
      <rect>
        7 20 3 4</rect></_>
    <_>
      <rect>
        7 25 1 2</rect></_>
    <_>
      <rect>
        8 10 2 3</rect></_>
    <_>
      <rect>
        8 29 2 1</rect></_>
    <_>
      <rect>
        9 8 1 2</rect></_>
    <_>
      <rect>
        10 25 2 2</rect></_>
    <_>
      <rect>
        13 7 1 1</rect></_>
    <_>
      <rect>
        13 10 1 1</rect></_></features></cascade>
</opencv_storage>
