<?xml version="1.0"?>
<opencv_storage>
<cascade>
  <stageType>BOOST</stageType>
  <featureType>LBP</featureType>
  <height>24</height>
  <width>14</width>
  <stageParams>
    <boostType>GAB</boostType>
    <minHitRate>9.4999998807907104e-01</minHitRate>
    <maxFalseAlarm>1.0000000149011612e-01</maxFalseAlarm>
    <weightTrimRate>9.4999998807907104e-01</weightTrimRate>
    <maxDepth>1</maxDepth>
    <maxWeakCount>100</maxWeakCount></stageParams>
  <featureParams>
    <maxCatCount>256</maxCatCount>
    <featSize>1</featSize></featureParams>
  <stageNum>10</stageNum>
  <stages>
    <!-- stage 0 -->
    <_>
      <maxWeakCount>2</maxWeakCount>
      <stageThreshold>-2.7084669470787048e-01</stageThreshold>
      <weakClassifiers>
        <_>
          <internalNodes>
            0 -1 4 -552341093 -1828634623 16777219 420036609 772491
            -1596981247 -1073512277 -5508657</internalNodes>
          <leafValues>
            -9.7205591201782227e-01 7.8181821107864380e-01</leafValues></_>
        <_>
          <internalNodes>
            0 -1 8 -234425861 -788332543 245765 -787283965 -1073708917
            16908288 -385204213 -744492145</internalNodes>
          <leafValues>
            -1. 7.0120918750762939e-01</leafValues></_></weakClassifiers></_>
    <!-- stage 1 -->
    <_>
      <maxWeakCount>2</maxWeakCount>
      <stageThreshold>-1.9643190503120422e-01</stageThreshold>
      <weakClassifiers>
        <_>
          <internalNodes>
            0 -1 11 -614468129 -777845745 66561 -716718053 -1274629461
            1241776128 -402077557 -275791665</internalNodes>
          <leafValues>
            -9.5284873247146606e-01 8.7234044075012207e-01</leafValues></_>
        <_>
          <internalNodes>
            0 -1 12 -208023073 -750043108 -1862254573 -586087657
            -796818533 -1166016384 -1065319286 -98834421</internalNodes>
          <leafValues>
            -9.4925636053085327e-01 7.5641679763793945e-01</leafValues></_></weakClassifiers></_>
    <!-- stage 2 -->
    <_>
      <maxWeakCount>1</maxWeakCount>
      <stageThreshold>5.4285717010498047e-01</stageThreshold>
      <weakClassifiers>
        <_>
          <internalNodes>
            0 -1 13 -79307297 -1748778543 -381578873 -1414289381
            -248907317 -1375321951 -368514901 -4193</internalNodes>
          <leafValues>
            -9.9176955223083496e-01 5.4285717010498047e-01</leafValues></_></weakClassifiers></_>
    <!-- stage 3 -->
    <_>
      <maxWeakCount>1</maxWeakCount>
      <stageThreshold>5.7142859697341919e-01</stageThreshold>
      <weakClassifiers>
        <_>
          <internalNodes>
            0 -1 7 -536936449 -700214959 -2091533293 -126758501
            -1974867325 -372256125 -204091881 -129</internalNodes>
          <leafValues>
            -9.9588477611541748e-01 5.7142859697341919e-01</leafValues></_></weakClassifiers></_>
    <!-- stage 4 -->
    <_>
      <maxWeakCount>2</maxWeakCount>
      <stageThreshold>-3.3177182078361511e-01</stageThreshold>
      <weakClassifiers>
        <_>
          <internalNodes>
            0 -1 3 -607125761 -402222695 134574591 -327597795
            -1067864657 -106709901 -95565681 -7349877</internalNodes>
          <leafValues>
            -9.8357290029525757e-01 5.0724637508392334e-01</leafValues></_>
        <_>
          <internalNodes>
            0 -1 15 -76286369 -118365113 -934968251 -1214782357
            -497844209 -662667263 -779245553 -1075074065</internalNodes>
          <leafValues>
            -9.8804450035095215e-01 6.5180104970932007e-01</leafValues></_></weakClassifiers></_>
    <!-- stage 5 -->
    <_>
      <maxWeakCount>2</maxWeakCount>
      <stageThreshold>-4.0581214427947998e-01</stageThreshold>
      <weakClassifiers>
        <_>
          <internalNodes>
            0 -1 16 -503842945 -321717121 -2069644193 -360010809
            -2136347941 -574584954 -262037505 -3150097</internalNodes>
          <leafValues>
            -9.7565925121307373e-01 5.8730161190032959e-01</leafValues></_>
        <_>
          <internalNodes>
            0 -1 10 -1224500233 1494331663 -1014857481 -816994485
            268664911 -799555533 -7355599 -287376897</internalNodes>
          <leafValues>
            -1. 5.6984710693359375e-01</leafValues></_></weakClassifiers></_>
    <!-- stage 6 -->
    <_>
      <maxWeakCount>2</maxWeakCount>
      <stageThreshold>-3.0868855118751526e-01</stageThreshold>
      <weakClassifiers>
        <_>
          <internalNodes>
            0 -1 6 -121638945 -633184637 355803513 -708120393
            -1413282913 -1383009120 -673017909 -7471217</internalNodes>
          <leafValues>
            -9.5219123363494873e-01 6.2962961196899414e-01</leafValues></_>
        <_>
          <internalNodes>
            0 -1 14 -570959425 -184437253 -2071740267 -997764983
            -638331873 -1998001917 -325089269 -33558081</internalNodes>
          <leafValues>
            -9.3831819295883179e-01 7.4783599376678467e-01</leafValues></_></weakClassifiers></_>
    <!-- stage 7 -->
    <_>
      <maxWeakCount>3</maxWeakCount>
      <stageThreshold>8.5068903863430023e-02</stageThreshold>
      <weakClassifiers>
        <_>
          <internalNodes>
            0 -1 3 -11028001 -286701451 -922336997 -276525041
            -1753115713 -99885055 -359490581 -5248087</internalNodes>
          <leafValues>
            -9.7137016057968140e-01 4.6268656849861145e-01</leafValues></_>
        <_>
          <internalNodes>
            0 -1 17 -305198081 -1291056839 -971961777 -2048941983
            -633250821 -133963215 -1129248597 -84941845</internalNodes>
          <leafValues>
            -9.6236658096313477e-01 5.2783548831939697e-01</leafValues></_>
        <_>
          <internalNodes>
            0 -1 2 -686892033 -620432697 -1983771991 -112996341
            -1718582513 -435845811 -594863653 -3421525</internalNodes>
          <leafValues>
            -9.9174231290817261e-01 5.8474892377853394e-01</leafValues></_></weakClassifiers></_>
    <!-- stage 8 -->
    <_>
      <maxWeakCount>3</maxWeakCount>
      <stageThreshold>8.5623167455196381e-02</stageThreshold>
      <weakClassifiers>
        <_>
          <internalNodes>
            0 -1 16 -413141513 -1537794333 -1828663177 -1030504183
            -1073528595 -1172305887 -894275365 -48291394</internalNodes>
          <leafValues>
            -9.5951414108276367e-01 4.8387095332145691e-01</leafValues></_>
        <_>
          <internalNodes>
            0 -1 1 1897945599 -1726331623 -721119331 522746114
            -1601642279 -132634496 -1593729009 -7685461</internalNodes>
          <leafValues>
            -9.4493818283081055e-01 5.2076405286788940e-01</leafValues></_>
        <_>
          <internalNodes>
            0 -1 0 -1789660721 967935763 -788414113 -1121758903
            1711579790 -1878224639 -276715509 -1146356582</internalNodes>
          <leafValues>
            -9.1901189088821411e-01 7.0977497100830078e-01</leafValues></_></weakClassifiers></_>
    <!-- stage 9 -->
    <_>
      <maxWeakCount>2</maxWeakCount>
      <stageThreshold>-4.0208852291107178e-01</stageThreshold>
      <weakClassifiers>
        <_>
          <internalNodes>
            0 -1 5 -1129226835 -787259371 143681093 -842675887
            1612283933 -938925040 -1591492169 -104862765</internalNodes>
          <leafValues>
            -9.3675887584686279e-01 6.0000002384185791e-01</leafValues></_>
        <_>
          <internalNodes>
            0 -1 9 -295700553 -368072685 -2147417825 -209649663
            -1853783789 -801111808 -2147155826 -6258303</internalNodes>
          <leafValues>
            -9.8297029733657837e-01 5.3467035293579102e-01</leafValues></_></weakClassifiers></_></stages>
  <features>
    <_>
      <rect>
        3 19 1 1</rect></_>
    <_>
      <rect>
        3 21 2 1</rect></_>
    <_>
      <rect>
        4 8 1 5</rect></_>
    <_>
      <rect>
        4 17 1 1</rect></_>
    <_>
      <rect>
        4 17 1 2</rect></_>
    <_>
      <rect>
        5 3 2 4</rect></_>
    <_>
      <rect>
        5 6 1 1</rect></_>
    <_>
      <rect>
        5 8 1 4</rect></_>
    <_>
      <rect>
        5 10 1 3</rect></_>
    <_>
      <rect>
        5 12 1 1</rect></_>
    <_>
      <rect>
        5 14 1 2</rect></_>
    <_>
      <rect>
        5 14 2 3</rect></_>
    <_>
      <rect>
        5 14 3 2</rect></_>
    <_>
      <rect>
        5 17 1 2</rect></_>
    <_>
      <rect>
        6 2 2 5</rect></_>
    <_>
      <rect>
        6 5 1 4</rect></_>
    <_>
      <rect>
        6 13 1 1</rect></_>
    <_>
      <rect>
        7 19 1 1</rect></_></features></cascade>
</opencv_storage>
