<?xml version="1.0"?>
<opencv_storage>
<cascade>
  <stageType>BOOST</stageType>
  <featureType>LBP</featureType>
  <height>48</height>
  <width>48</width>
  <stageParams>
    <boostType>GAB</boostType>
    <minHitRate>9.9500000476837158e-01</minHitRate>
    <maxFalseAlarm>4.0000000596046448e-01</maxFalseAlarm>
    <weightTrimRate>9.4999999999999996e-01</weightTrimRate>
    <maxDepth>1</maxDepth>
    <maxWeakCount>100</maxWeakCount></stageParams>
  <featureParams>
    <maxCatCount>256</maxCatCount>
    <featSize>1</featSize></featureParams>
  <stageNum>6</stageNum>
  <stages>
    <!-- stage 0 -->
    <_>
      <maxWeakCount>1</maxWeakCount>
      <stageThreshold>9.6710526943206787e-01</stageThreshold>
      <weakClassifiers>
        <_>
          <internalNodes>
            0 -1 4 -136314881 -1684299173 -1858473633 -1646528669
            -863776261 -104669171 -647500097 -17</internalNodes>
          <leafValues>
            -9.9596774578094482e-01 9.6710526943206787e-01</leafValues></_></weakClassifiers></_>
    <!-- stage 1 -->
    <_>
      <maxWeakCount>2</maxWeakCount>
      <stageThreshold>-4.3334983289241791e-02</stageThreshold>
      <weakClassifiers>
        <_>
          <internalNodes>
            0 -1 2 -69214721 -547432997 -216968227 -10989281 -443810817
            -1750339157 -616051989 -2098177</internalNodes>
          <leafValues>
            -9.9394553899765015e-01 9.6059113740921021e-01</leafValues></_>
        <_>
          <internalNodes>
            0 -1 7 -142606369 -1216358233 -259794467 -1214263281
            -543688277 -246683672 -1031026177 -1</internalNodes>
          <leafValues>
            -9.8639535903930664e-01 9.5061051845550537e-01</leafValues></_></weakClassifiers></_>
    <!-- stage 2 -->
    <_>
      <maxWeakCount>2</maxWeakCount>
      <stageThreshold>-7.5539916753768921e-02</stageThreshold>
      <weakClassifiers>
        <_>
          <internalNodes>
            0 -1 1 -69533697 -8427237 -29781233 -110111985 -219481137
            -113775733 -53240069 -17</internalNodes>
          <leafValues>
            -9.9383985996246338e-01 9.0734821557998657e-01</leafValues></_>
        <_>
          <internalNodes>
            0 -1 6 -2097169 -222109617 -536379341 -427366905 -745417277
            -526196733 -503587385 -4194305</internalNodes>
          <leafValues>
            -9.8288816213607788e-01 9.1896003484725952e-01</leafValues></_></weakClassifiers></_>
    <!-- stage 3 -->
    <_>
      <maxWeakCount>1</maxWeakCount>
      <stageThreshold>8.6583465337753296e-01</stageThreshold>
      <weakClassifiers>
        <_>
          <internalNodes>
            0 -1 3 -2561 -1051465809 1364235215 -319818513 -511448341
            -652942713 -201856529 -352321825</internalNodes>
          <leafValues>
            -9.9582898616790771e-01 8.6583465337753296e-01</leafValues></_></weakClassifiers></_>
    <!-- stage 4 -->
    <_>
      <maxWeakCount>2</maxWeakCount>
      <stageThreshold>-7.0959687232971191e-02</stageThreshold>
      <weakClassifiers>
        <_>
          <internalNodes>
            0 -1 5 -804127501 -250543871 268435473 -788264959
            -2147483511 -536870912 -1877999605 -1744205820</internalNodes>
          <leafValues>
            -9.8176294565200806e-01 9.2822188138961792e-01</leafValues></_>
        <_>
          <internalNodes>
            0 -1 8 -1056784309 1359118337 0 -1878974464 536872961
            268992512 -1073676088 -1054100957</internalNodes>
          <leafValues>
            -9.9615198373794556e-01 9.1080325841903687e-01</leafValues></_></weakClassifiers></_>
    <!-- stage 5 -->
    <_>
      <maxWeakCount>1</maxWeakCount>
      <stageThreshold>1.</stageThreshold>
      <weakClassifiers>
        <_>
          <internalNodes>
            0 -1 0 0 33554432 0 268435456 0 33554432 0 4</internalNodes>
          <leafValues>
            -1. 1.</leafValues></_></weakClassifiers></_></stages>
  <features>
    <_>
      <rect>
        0 3 13 8</rect></_>
    <_>
      <rect>
        18 21 3 5</rect></_>
    <_>
      <rect>
        19 26 3 3</rect></_>
    <_>
      <rect>
        19 31 1 3</rect></_>
    <_>
      <rect>
        19 35 2 3</rect></_>
    <_>
      <rect>
        20 10 4 7</rect></_>
    <_>
      <rect>
        20 11 2 12</rect></_>
    <_>
      <rect>
        20 19 2 3</rect></_>
    <_>
      <rect>
        22 8 1 4</rect></_></features></cascade>
</opencv_storage>
