<?xml version="1.0"?>
<opencv_storage>
<cascade>
  <stageType>BOOST</stageType>
  <featureType>LBP</featureType>
  <height>24</height>
  <width>12</width>
  <stageParams>
    <boostType>GAB</boostType>
    <minHitRate>9.9500000476837158e-01</minHitRate>
    <maxFalseAlarm>5.0000000000000000e-01</maxFalseAlarm>
    <weightTrimRate>9.4999998807907104e-01</weightTrimRate>
    <maxDepth>1</maxDepth>
    <maxWeakCount>100</maxWeakCount></stageParams>
  <featureParams>
    <maxCatCount>256</maxCatCount>
    <featSize>1</featSize></featureParams>
  <stageNum>15</stageNum>
  <stages>
    <!-- stage 0 -->
    <_>
      <maxWeakCount>3</maxWeakCount>
      <stageThreshold>-1.2323782444000244e+00</stageThreshold>
      <weakClassifiers>
        <_>
          <internalNodes>
            0 -1 3 -16465 -1 -182471793 -81 -69222401 -2362373 -17 -1</internalNodes>
          <leafValues>
            -9.6362411975860596e-01 7.3395931720733643e-01</leafValues></_>
        <_>
          <internalNodes>
            0 -1 2 -113 -33 2132803343 -5121 -1074004113 -67375265
            -4195345 -4113</internalNodes>
          <leafValues>
            -9.0154159069061279e-01 6.8281573057174683e-01</leafValues></_>
        <_>
          <internalNodes>
            0 -1 10 -33554435 804306879 -540566529 -269567042 -41156641
            -67109953 -2130097 -1041</internalNodes>
          <leafValues>
            -8.4329432249069214e-01 6.3278746604919434e-01</leafValues></_></weakClassifiers></_>
    <!-- stage 1 -->
    <_>
      <maxWeakCount>3</maxWeakCount>
      <stageThreshold>-1.2262994050979614e+00</stageThreshold>
      <weakClassifiers>
        <_>
          <internalNodes>
            0 -1 49 -1 -1025 -9709633 -1207960577 -67108867 2113927111
            -1179667 -1</internalNodes>
          <leafValues>
            -9.1890990734100342e-01 6.2270450592041016e-01</leafValues></_>
        <_>
          <internalNodes>
            0 -1 18 -25427969 -1895831553 2147476971 -270538785 -264513
            1054855071 -71303169 -268435457</internalNodes>
          <leafValues>
            -8.6010062694549561e-01 6.1391937732696533e-01</leafValues></_>
        <_>
          <internalNodes>
            0 -1 46 2063597565 -67635233 -287320069 -94636085 1929344885
            1742726119 -394265812 -16777217</internalNodes>
          <leafValues>
            -8.8990610837936401e-01 5.5271118879318237e-01</leafValues></_></weakClassifiers></_>
    <!-- stage 2 -->
    <_>
      <maxWeakCount>3</maxWeakCount>
      <stageThreshold>-1.2457205057144165e+00</stageThreshold>
      <weakClassifiers>
        <_>
          <internalNodes>
            0 -1 1 -20497 -673451209 -101193745 -536870913 -16778289
            -263681 -134217729 -81</internalNodes>
          <leafValues>
            -9.1888207197189331e-01 4.5103856921195984e-01</leafValues></_>
        <_>
          <internalNodes>
            0 -1 51 -129 -2121745 -1290807813 -20709425 -152077455
            -67109953 -285213825 -285212673</internalNodes>
          <leafValues>
            -8.5531789064407349e-01 5.4647928476333618e-01</leafValues></_>
        <_>
          <internalNodes>
            0 -1 4 -335550609 -1342183441 -103053369 -283137 -234930177
            -1082671153 -34078818 -1</internalNodes>
          <leafValues>
            -8.4144121408462524e-01 5.5003029108047485e-01</leafValues></_></weakClassifiers></_>
    <!-- stage 3 -->
    <_>
      <maxWeakCount>3</maxWeakCount>
      <stageThreshold>-1.2501317262649536e+00</stageThreshold>
      <weakClassifiers>
        <_>
          <internalNodes>
            0 -1 31 -671490563 -573468453 -1623089187 -539101731
            -1282886659 -206861684 -68617217 -16705</internalNodes>
          <leafValues>
            -8.5899460315704346e-01 7.3033708333969116e-01</leafValues></_>
        <_>
          <internalNodes>
            0 -1 35 -270538993 -169869889 -385769505 -69207669
            -134218769 2089730795 -37749781 -1049617</internalNodes>
          <leafValues>
            -7.8702563047409058e-01 5.7817625999450684e-01</leafValues></_>
        <_>
          <internalNodes>
            0 -1 39 -33751556 -671374337 -644875485 -69732865 -214992523
            -770530613 -1316225409 -1281</internalNodes>
          <leafValues>
            -9.4701325893402100e-01 3.9588847756385803e-01</leafValues></_></weakClassifiers></_>
    <!-- stage 4 -->
    <_>
      <maxWeakCount>4</maxWeakCount>
      <stageThreshold>-2.0437471866607666e+00</stageThreshold>
      <weakClassifiers>
        <_>
          <internalNodes>
            0 -1 11 -524289 -68026529 -746603521 -1050658 -785389057
            1778370799 -223608833 -1</internalNodes>
          <leafValues>
            -8.8293325901031494e-01 5.1675486564636230e-01</leafValues></_>
        <_>
          <internalNodes>
            0 -1 20 -67158089 -459874 1976293884 -2129922 1373600732
            2079054271 1405058911 -1025</internalNodes>
          <leafValues>
            -8.2703971862792969e-01 4.3144723773002625e-01</leafValues></_>
        <_>
          <internalNodes>
            0 -1 17 1360394429 1598837245 -1021838081 1607815664
            328556794 1367396605 2127227327 463529146</internalNodes>
          <leafValues>
            -8.1737411022186279e-01 4.7408699989318848e-01</leafValues></_>
        <_>
          <internalNodes>
            0 -1 53 -136445953 -2099788145 -654092330 -1453329889
            2062375925 2072969928 -2272291 -131091</internalNodes>
          <leafValues>
            -8.3280152082443237e-01 4.8359978199005127e-01</leafValues></_></weakClassifiers></_>
    <!-- stage 5 -->
    <_>
      <maxWeakCount>4</maxWeakCount>
      <stageThreshold>-1.9591575860977173e+00</stageThreshold>
      <weakClassifiers>
        <_>
          <internalNodes>
            0 -1 37 -6431235 -671773697 -713451041 -14952291 -67503107
            -71586885 -81006593 -17413</internalNodes>
          <leafValues>
            -8.3291614055633545e-01 6.5533977746963501e-01</leafValues></_>
        <_>
          <internalNodes>
            0 -1 30 -67111945 -1361070593 -639708237 -268438234
            -178782993 2007476935 -817104393 -134217810</internalNodes>
          <leafValues>
            -7.9607826471328735e-01 4.9093219637870789e-01</leafValues></_>
        <_>
          <internalNodes>
            0 -1 58 255012659 -268453425 -1073310061 -35678321
            -150261577 -591163230 -69206021 -16385</internalNodes>
          <leafValues>
            -7.8276872634887695e-01 5.2895563840866089e-01</leafValues></_>
        <_>
          <internalNodes>
            0 -1 7 -1905065985 -1942816510 -38316585 -1312393 2139075007
            802812922 -7078965 -1342177497</internalNodes>
          <leafValues>
            -8.5911875963211060e-01 4.5737230777740479e-01</leafValues></_></weakClassifiers></_>
    <!-- stage 6 -->
    <_>
      <maxWeakCount>4</maxWeakCount>
      <stageThreshold>-1.9273453950881958e+00</stageThreshold>
      <weakClassifiers>
        <_>
          <internalNodes>
            0 -1 31 -547489283 -545290179 -1759775233 -572587139
            1496374265 -1145592430 -5243905 -2389569</internalNodes>
          <leafValues>
            -8.5233157873153687e-01 4.6153846383094788e-01</leafValues></_>
        <_>
          <internalNodes>
            0 -1 32 2006005147 -1848408879 1494965247 -547388931
            2022060475 -1179991933 -1089840129 462946520</internalNodes>
          <leafValues>
            -7.9957270622253418e-01 4.1363179683685303e-01</leafValues></_>
        <_>
          <internalNodes>
            0 -1 26 -47355091 2139058485 -1324979203 -2100739 -109708385
            -1145311005 -1683227733 -1080033365</internalNodes>
          <leafValues>
            -7.0755630731582642e-01 5.8531022071838379e-01</leafValues></_>
        <_>
          <internalNodes>
            0 -1 36 2010109886 2013262111 -108789842 -1076901077
            2141716477 1005565098 2143256061 1069542319</internalNodes>
          <leafValues>
            -8.6075133085250854e-01 4.5094677805900574e-01</leafValues></_></weakClassifiers></_>
    <!-- stage 7 -->
    <_>
      <maxWeakCount>5</maxWeakCount>
      <stageThreshold>-1.5084930658340454e+00</stageThreshold>
      <weakClassifiers>
        <_>
          <internalNodes>
            0 -1 13 -533057 -1073753089 -643873281 -15889 -611795457
            -1081351205 -138682625 -2097697</internalNodes>
          <leafValues>
            -8.2215291261672974e-01 6.0297769308090210e-01</leafValues></_>
        <_>
          <internalNodes>
            0 -1 30 -9225 -1677741569 -48308845 -335545590 -1602123033
            1405325727 -12323337 -436207698</internalNodes>
          <leafValues>
            -7.7863526344299316e-01 4.5667529106140137e-01</leafValues></_>
        <_>
          <internalNodes>
            0 -1 24 -1617461771 -541208357 1561843479 1604147004
            1061190649 -238042630 2065595263 962068616</internalNodes>
          <leafValues>
            -7.7079933881759644e-01 4.8752880096435547e-01</leafValues></_>
        <_>
          <internalNodes>
            0 -1 29 -16863770 -4269705 -705448571 -8979494 -39060481
            -83115391 -107226625 -14682689</internalNodes>
          <leafValues>
            -8.8472408056259155e-01 3.7964150309562683e-01</leafValues></_>
        <_>
          <internalNodes>
            0 -1 5 1893145551 -774827545 -711945857 -576827371
            -2004701589 -2083422064 -365888533 -74742261</internalNodes>
          <leafValues>
            -7.3808622360229492e-01 4.8949041962623596e-01</leafValues></_></weakClassifiers></_>
    <!-- stage 8 -->
    <_>
      <maxWeakCount>5</maxWeakCount>
      <stageThreshold>-1.7014868259429932e+00</stageThreshold>
      <weakClassifiers>
        <_>
          <internalNodes>
            0 -1 28 -262145 -405674017 -718167563 -406986401 2048127227
            -98315119 -778308101 -119541505</internalNodes>
          <leafValues>
            -8.5742706060409546e-01 3.2770270109176636e-01</leafValues></_>
        <_>
          <internalNodes>
            0 -1 19 -536876761 939520383 -573061817 795862926 -486586805
            2144596219 1522788471 -1793</internalNodes>
          <leafValues>
            -8.5124152898788452e-01 2.9265317320823669e-01</leafValues></_>
        <_>
          <internalNodes>
            0 -1 25 366219504 -100708213 -652928033 -45271102
            -1715456783 -46604264 -1286522433 999817355</internalNodes>
          <leafValues>
            -8.1712317466735840e-01 3.7463858723640442e-01</leafValues></_>
        <_>
          <internalNodes>
            0 -1 22 -69238786 -34022913 -1861084322 -2229252 1539394296
            -877978678 -74744833 -1073761282</internalNodes>
          <leafValues>
            -7.1500706672668457e-01 4.7534996271133423e-01</leafValues></_>
        <_>
          <internalNodes>
            0 -1 48 -1803822849 -794623981 1074454618 -1035304738
            -1276169678 -798814069 -242226305 -285385952</internalNodes>
          <leafValues>
            -8.4280681610107422e-01 4.2597812414169312e-01</leafValues></_></weakClassifiers></_>
    <!-- stage 9 -->
    <_>
      <maxWeakCount>5</maxWeakCount>
      <stageThreshold>-1.5956144332885742e+00</stageThreshold>
      <weakClassifiers>
        <_>
          <internalNodes>
            0 -1 56 -12848644 -537889 -217975493 -69216033 -74712067
            -6323558 -74712065 -71353409</internalNodes>
          <leafValues>
            -8.4898227453231812e-01 3.4519574046134949e-01</leafValues></_>
        <_>
          <internalNodes>
            0 -1 57 -973209859 -715402805 -511617057 -1319533565
            -92713448 -338738613 -153105985 -285213697</internalNodes>
          <leafValues>
            -7.2628170251846313e-01 4.0509387850761414e-01</leafValues></_>
        <_>
          <internalNodes>
            0 -1 45 -338100230 -203709778 1346878303 -1176564561
            -101770369 -1048477560 1573354367 -305187877</internalNodes>
          <leafValues>
            -8.3500170707702637e-01 3.9018136262893677e-01</leafValues></_>
        <_>
          <internalNodes>
            0 -1 8 -137102765 268418479 -1035513602 -805373009
            -1877878645 -537677657 -905912249 -35978</internalNodes>
          <leafValues>
            -7.3174571990966797e-01 4.0855386853218079e-01</leafValues></_>
        <_>
          <internalNodes>
            0 -1 6 14491662 1372553350 -2130605822 -615522157 1934341251
            -905868671 -70266101 -822105873</internalNodes>
          <leafValues>
            -7.8949755430221558e-01 4.1502144932746887e-01</leafValues></_></weakClassifiers></_>
    <!-- stage 10 -->
    <_>
      <maxWeakCount>4</maxWeakCount>
      <stageThreshold>-2.1307969093322754e+00</stageThreshold>
      <weakClassifiers>
        <_>
          <internalNodes>
            0 -1 47 -270532739 -1077704485 16994559 319390091
            -1899120451 -1702131573 -1433683253 -24384785</internalNodes>
          <leafValues>
            -8.9136689901351929e-01 1.0386473685503006e-01</leafValues></_>
        <_>
          <internalNodes>
            0 -1 54 -95161925 -488656767 -804171386 2081632649
            -237765829 -87191397 -90965137 -145</internalNodes>
          <leafValues>
            -7.2406840324401855e-01 4.0158498287200928e-01</leafValues></_>
        <_>
          <internalNodes>
            0 -1 55 -19529796 -1227402413 1901319089 1836569087
            2076961789 2074779802 2073246585 -2400295</internalNodes>
          <leafValues>
            -8.2175582647323608e-01 3.6131763458251953e-01</leafValues></_>
        <_>
          <internalNodes>
            0 -1 27 -271783442 704117187 -514726930 -145514005
            -1032147717 19964177 -240003717 -558373</internalNodes>
          <leafValues>
            -8.7667924165725708e-01 3.0376338958740234e-01</leafValues></_></weakClassifiers></_>
    <!-- stage 11 -->
    <_>
      <maxWeakCount>5</maxWeakCount>
      <stageThreshold>-1.6366270780563354e+00</stageThreshold>
      <weakClassifiers>
        <_>
          <internalNodes>
            0 -1 21 -680010245 -539535083 -115503361 -2909234
            -1374627605 -256268219 -859592209 -70272597</internalNodes>
          <leafValues>
            -8.5322964191436768e-01 2.0122887194156647e-01</leafValues></_>
        <_>
          <internalNodes>
            0 -1 23 -7414800 -72346922 -1727933605 -640302884 -217978120
            -74906485 1126939321 -5545473</internalNodes>
          <leafValues>
            -6.8505018949508667e-01 3.9763844013214111e-01</leafValues></_>
        <_>
          <internalNodes>
            0 -1 40 -134416396 -648572437 -249842893 -572583213
            -452629569 -2146828287 -204598657 -174115969</internalNodes>
          <leafValues>
            -8.4723842144012451e-01 3.4671080112457275e-01</leafValues></_>
        <_>
          <internalNodes>
            0 -1 34 -1346523345 1905669467 -704312851 -171585164
            -712380053 -104153078 -749993985 -440931413</internalNodes>
          <leafValues>
            -7.2282075881958008e-01 4.0921610593795776e-01</leafValues></_>
        <_>
          <internalNodes>
            0 -1 12 -1847780739 1071436124 75613370 -545328642
            -1073484356 -103903224 -1072990134 -90181425</internalNodes>
          <leafValues>
            -8.0492591857910156e-01 3.8907301425933838e-01</leafValues></_></weakClassifiers></_>
    <!-- stage 12 -->
    <_>
      <maxWeakCount>5</maxWeakCount>
      <stageThreshold>-1.3626298904418945e+00</stageThreshold>
      <weakClassifiers>
        <_>
          <internalNodes>
            0 -1 9 -536871177 -610803061 1090666763 -685776893
            -922107253 -586711037 -125444469 -807410705</internalNodes>
          <leafValues>
            -7.9333746433258057e-01 4.9180328845977783e-01</leafValues></_>
        <_>
          <internalNodes>
            0 -1 15 -113380377 -1028558399 -1792683521 -245411380
            -74392885 -209174376 -931071233 -69602401</internalNodes>
          <leafValues>
            -6.6463822126388550e-01 4.4128429889678955e-01</leafValues></_>
        <_>
          <internalNodes>
            0 -1 44 -488639900 -1042558629 -761146890 1909309679
            -1359873731 32832 -263456499 -543698322</internalNodes>
          <leafValues>
            -7.8716742992401123e-01 3.6662581562995911e-01</leafValues></_>
        <_>
          <internalNodes>
            0 -1 33 285217266 -372141286 84085207 -720289328 940052720
            -89945984 -2059322113 1607401658</internalNodes>
          <leafValues>
            -7.0707833766937256e-01 3.8662981986999512e-01</leafValues></_>
        <_>
          <internalNodes>
            0 -1 42 1485296607 -1773289017 1342820574 -196095049
            -2138537519 -2113238877 2038689987 -890241275</internalNodes>
          <leafValues>
            -6.2800723314285278e-01 4.9588343501091003e-01</leafValues></_></weakClassifiers></_>
    <!-- stage 13 -->
    <_>
      <maxWeakCount>5</maxWeakCount>
      <stageThreshold>-1.6643650531768799e+00</stageThreshold>
      <weakClassifiers>
        <_>
          <internalNodes>
            0 -1 21 -561022469 -577126073 -783159329 -615140914
            -393427489 -954561912 -391074833 -558130289</internalNodes>
          <leafValues>
            -8.4620553255081177e-01 2.0317460596561432e-01</leafValues></_>
        <_>
          <internalNodes>
            0 -1 41 -775163139 -1852637157 68255 1904410627 -1980499205
            -1966997365 -1700832280 784313319</internalNodes>
          <leafValues>
            -7.3621511459350586e-01 3.1664824485778809e-01</leafValues></_>
        <_>
          <internalNodes>
            0 -1 50 -40452097 -1718185765 -1862225661 -2066263985
            -375363471 -1022689152 -340063449 -1075089781</internalNodes>
          <leafValues>
            -7.1337717771530151e-01 3.6510434746742249e-01</leafValues></_>
        <_>
          <internalNodes>
            0 -1 38 1599453180 -1585041002 320189424 961360023
            -536259979 -2147450860 -662671131 -109873469</internalNodes>
          <leafValues>
            -7.8723961114883423e-01 3.5789901018142700e-01</leafValues></_>
        <_>
          <internalNodes>
            0 -1 0 -2125598772 -212236649 -520005167 1496383491
            848083929 855674888 464754943 -2118779946</internalNodes>
          <leafValues>
            -7.1267253160476685e-01 4.0600931644439697e-01</leafValues></_></weakClassifiers></_>
    <!-- stage 14 -->
    <_>
      <maxWeakCount>5</maxWeakCount>
      <stageThreshold>-1.5438024997711182e+00</stageThreshold>
      <weakClassifiers>
        <_>
          <internalNodes>
            0 -1 43 -175506433 -582642407 -1044277121 -41168889
            -1459573831 -71073151 -1096554325 -7701877</internalNodes>
          <leafValues>
            -8.2716858386993408e-01 2.4412296712398529e-01</leafValues></_>
        <_>
          <internalNodes>
            0 -1 21 1494046011 -711249597 -787878341 -1622828054
            -2011640342 -2092268544 -930043190 -153117814</internalNodes>
          <leafValues>
            -6.8863195180892944e-01 3.1301367282867432e-01</leafValues></_>
        <_>
          <internalNodes>
            0 -1 52 1917555710 -787479935 -1878982345 -2147381246
            -1301387687 -699750713 -428095207 785119999</internalNodes>
          <leafValues>
            -9.2208880186080933e-01 2.5719398260116577e-01</leafValues></_>
        <_>
          <internalNodes>
            0 -1 14 -535757440 -799502241 -2147446625 2140000333
            -259943494 -1199472512 -1450583317 268599306</internalNodes>
          <leafValues>
            -6.3338845968246460e-01 4.0934225916862488e-01</leafValues></_>
        <_>
          <internalNodes>
            0 -1 16 1753756372 -741166768 16797969 1934508180
            -2130374502 -1174306624 -2130093918 2072970205</internalNodes>
          <leafValues>
            -6.3495838642120361e-01 4.5618376135826111e-01</leafValues></_></weakClassifiers></_></stages>
  <features>
    <_>
      <rect>
        0 0 3 2</rect></_>
    <_>
      <rect>
        0 0 4 3</rect></_>
    <_>
      <rect>
        0 0 4 5</rect></_>
    <_>
      <rect>
        0 2 4 5</rect></_>
    <_>
      <rect>
        0 4 3 4</rect></_>
    <_>
      <rect>
        0 4 4 1</rect></_>
    <_>
      <rect>
        0 6 1 6</rect></_>
    <_>
      <rect>
        0 11 2 2</rect></_>
    <_>
      <rect>
        0 13 2 3</rect></_>
    <_>
      <rect>
        0 14 1 3</rect></_>
    <_>
      <rect>
        0 14 2 3</rect></_>
    <_>
      <rect>
        0 14 3 3</rect></_>
    <_>
      <rect>
        0 15 2 3</rect></_>
    <_>
      <rect>
        0 15 3 2</rect></_>
    <_>
      <rect>
        0 16 1 1</rect></_>
    <_>
      <rect>
        0 16 3 1</rect></_>
    <_>
      <rect>
        0 20 1 1</rect></_>
    <_>
      <rect>
        0 21 4 1</rect></_>
    <_>
      <rect>
        1 5 2 4</rect></_>
    <_>
      <rect>
        1 15 2 2</rect></_>
    <_>
      <rect>
        1 15 2 3</rect></_>
    <_>
      <rect>
        1 15 3 2</rect></_>
    <_>
      <rect>
        1 18 2 2</rect></_>
    <_>
      <rect>
        1 19 1 1</rect></_>
    <_>
      <rect>
        1 20 3 1</rect></_>
    <_>
      <rect>
        1 21 2 1</rect></_>
    <_>
      <rect>
        2 0 3 2</rect></_>
    <_>
      <rect>
        2 4 2 3</rect></_>
    <_>
      <rect>
        2 5 2 4</rect></_>
    <_>
      <rect>
        2 10 2 2</rect></_>
    <_>
      <rect>
        2 14 2 2</rect></_>
    <_>
      <rect>
        2 19 3 1</rect></_>
    <_>
      <rect>
        2 20 3 1</rect></_>
    <_>
      <rect>
        2 21 2 1</rect></_>
    <_>
      <rect>
        3 0 2 2</rect></_>
    <_>
      <rect>
        3 0 2 3</rect></_>
    <_>
      <rect>
        3 15 3 3</rect></_>
    <_>
      <rect>
        3 19 3 1</rect></_>
    <_>
      <rect>
        4 5 1 3</rect></_>
    <_>
      <rect>
        4 7 2 4</rect></_>
    <_>
      <rect>
        4 8 1 3</rect></_>
    <_>
      <rect>
        4 12 2 2</rect></_>
    <_>
      <rect>
        4 14 1 2</rect></_>
    <_>
      <rect>
        4 19 2 1</rect></_>
    <_>
      <rect>
        5 4 1 2</rect></_>
    <_>
      <rect>
        5 5 1 4</rect></_>
    <_>
      <rect>
        5 8 2 5</rect></_>
    <_>
      <rect>
        5 11 2 2</rect></_>
    <_>
      <rect>
        5 14 1 2</rect></_>
    <_>
      <rect>
        5 15 2 3</rect></_>
    <_>
      <rect>
        5 18 1 1</rect></_>
    <_>
      <rect>
        6 12 2 3</rect></_>
    <_>
      <rect>
        6 12 2 4</rect></_>
    <_>
      <rect>
        6 15 1 3</rect></_>
    <_>
      <rect>
        6 15 2 2</rect></_>
    <_>
      <rect>
        6 17 2 2</rect></_>
    <_>
      <rect>
        6 19 2 1</rect></_>
    <_>
      <rect>
        8 12 1 4</rect></_>
    <_>
      <rect>
        9 3 1 7</rect></_></features></cascade>
</opencv_storage>
